%YAML:1.0
my_svm: !!opencv-ml-svm
   svm_type: C_SVC
   kernel: { type:LINEAR }
   C: 1.
   term_criteria: { epsilon:2.2204460492503131e-016, iterations:100000 }
   var_all: 10752
   var_count: 10752
   class_count: 5
   class_labels: !!opencv-matrix
      rows: 1
      cols: 5
      dt: i
      data: [ 1, 2, 3, 4, 5 ]
   sv_total: 10
   support_vectors:
      - [ 9.76936426e-004, 0., 3.75936995e-003, -1.08710807e-002,
          -4.31924034e-003, 2.17162129e-002, 1.21444243e-003,
          -2.17821952e-002, 1.51952018e-003, 1.17984391e-003,
          6.65098149e-003, 6.99211785e-004, 1.15169929e-002,
          -6.98990747e-003, -9.81410965e-004, -1.45870831e-003,
          1.01441098e-003, 8.57513770e-003, -2.13074265e-003,
          -7.54660321e-003, 1.54836467e-002, -9.32292314e-004,
          -3.55805382e-002, -1.46277575e-002, -3.14583798e-004,
          -7.49288156e-005, -7.21898377e-002, 0., 8.86825565e-003, 0.,
          -1.21986372e-002, -8.53429665e-004, 1.65452971e-003,
          -6.92626275e-003, -3.28446478e-002, -2.48304824e-003,
          -1.26447820e-003, 7.30197923e-003, 2.04667379e-003,
          6.30735559e-003, 3.64647014e-004, -1.07642473e-003,
          -2.11497972e-004, -9.48545116e-004, 3.45716323e-003,
          -2.35221209e-003, 5.32994280e-003, -3.15691112e-003,
          7.53430242e-004, -2.14577969e-002, -2.26056296e-003,
          3.16404039e-004, -2.79348739e-003, 3.61739867e-003,
          -3.45903784e-002, 1.00523382e-002, -1.79495662e-003,
          -7.51958229e-003, -5.22186281e-003, -4.65064384e-002,
          2.53461325e-003, -3.27035505e-003, 5.02736904e-002,
          9.07339156e-004, 9.56118398e-004, -1.70548707e-002,
          7.38202687e-003, 5.47573809e-003, 1.17163947e-002,
          2.96082045e-003, 1.53040187e-003, 1.11207943e-002,
          3.03584756e-003, -3.91582493e-003, -6.36999216e-003,
          -3.36134061e-002, -5.61681110e-003, 6.34437054e-003,
          2.92812940e-003, -5.58350701e-003, -1.54658463e-002,
          1.17259845e-002, -2.99464166e-003, -3.65205482e-002, 0.,
          -4.80691763e-003, -1.43739730e-002, -1.08421629e-003,
          4.25352249e-003, 3.08241546e-002, 3.25443433e-003,
          -1.22301420e-002, -1.61928963e-002, 7.99349509e-003,
          5.54627506e-003, -3.05461953e-003, 4.42674849e-003,
          -1.59564498e-003, 2.19486654e-003, 1.55279502e-001,
          2.62604244e-002, 1.48318270e-002, 0., 0., -7.51715852e-003,
          -1.85530516e-003, 5.26326708e-004, 2.70713773e-003,
          2.28559580e-002, -3.84316593e-003, 1.04770053e-003,
          5.81175014e-002, 2.38121240e-004, 7.87372142e-003,
          4.44639532e-004, -3.30997631e-002, -6.02242444e-003,
          2.56790733e-003, -2.35769637e-002, -2.83097662e-003,
          -2.25668162e-004, 6.95074163e-003, 5.09535894e-002,
          2.06910816e-004, 1.16436727e-001, -4.01284124e-005,
          1.72860848e-004, -4.67578910e-004, 1.89039763e-002,
          -3.29992324e-002, -5.41487103e-003, 1.84871862e-003,
          2.73572449e-002, -1.71622690e-002, 7.31664756e-003,
          -9.19133832e-004, -1.46049792e-002, -7.54221762e-003,
          -1.01444321e-002, -6.19005319e-003, 2.74654049e-002,
          -4.06288775e-003, -4.92751738e-003, -1.12252485e-003,
          -7.22548226e-004, -2.11245835e-001, -2.03873598e-004,
          -1.08241653e-002, -4.41576587e-003, 2.51697600e-002,
          -3.58137973e-002, -2.03979877e-003, -4.70852741e-004,
          -1.18265254e-003, -2.82313256e-003, 3.58301140e-002,
          8.11518729e-003, 9.00039449e-003, 2.83594374e-002,
          2.13580746e-002, 1.40492599e-002, -3.99800651e-002,
          5.67765348e-002, 9.78703424e-003, 2.70311558e-003,
          -3.38062673e-004, 1.29479142e-002, 9.85983573e-003,
          -3.21193424e-004, 4.95217694e-003, -6.13148091e-004,
          -1.12456419e-002, 3.88656021e-003, -1.32247969e-003,
          -6.95571583e-003, 2.64027506e-001, 3.86757776e-002,
          -1.09015610e-002, 2.55394261e-003, -6.37976406e-003, 0.,
          1.63128937e-003, 6.36525033e-003, -3.31480778e-003,
          5.49332611e-003, -2.28164531e-002, -2.41031907e-002,
          -2.53559812e-003, -4.88145044e-004, 1.86611518e-001,
          1.75718013e-002, -4.77104355e-003, 1.89024594e-003,
          -1.10636822e-004, 1.01528212e-001, 2.24586023e-004,
          -1.17708987e-003, -1.01916178e-003, 3.06242658e-003,
          -1.12276347e-002, 5.53334132e-003, -2.34438013e-003,
          3.13046249e-003, 4.10811678e-002, 1.23981321e-002,
          1.18609071e-002, 5.23204729e-002, 3.43120820e-003,
          3.57877500e-002, -1.75751057e-002, -9.65619832e-002,
          -6.43377285e-003, 6.46377972e-004, 4.51275473e-003,
          -4.20290558e-003, -9.48781371e-002, 1.37638487e-003,
          1.94059114e-003, -1.18424115e-003, 6.94616581e-004,
          5.29053900e-003, 7.06490688e-003, -4.32253862e-003,
          -3.93707165e-003, 2.24652793e-003, -3.09132077e-002,
          -4.56149057e-002, -4.83039487e-003, -1.33830064e-003,
          -2.52234209e-002, 2.20475774e-002, 4.66804989e-002,
          -5.99186728e-003, 4.33753431e-002, 2.08649579e-002,
          -7.85418379e-004, -4.27677354e-004, 2.10513100e-002,
          -1.21222381e-002, -3.02107492e-003, -4.06040484e-003,
          -1.52784241e-002, 3.73167545e-003, -3.17964703e-003,
          1.57414917e-002, -1.28998118e-003, -3.40960571e-003,
          5.76628227e-005, 1.63412798e-004, -3.72057501e-003, 0.,
          -6.14699116e-003, -5.85593935e-003, -1.34589500e-003,
          1.68066903e-003, -9.38801840e-003, -7.35230595e-002,
          -9.10061132e-003, 3.21003114e-004, -1.21149933e-004,
          1.33261026e-003, 7.21691456e-003, -4.76299087e-003,
          1.09719322e-003, -2.94024777e-003, -1.38846291e-002,
          6.26738416e-003, 3.60009982e-003, 4.33331216e-003,
          -5.38433110e-003, 1.73288933e-003, 1.13464929e-002,
          9.13139805e-003, 6.64267209e-005, -2.73395941e-004,
          5.23659075e-003, 3.58995236e-002, -2.82831639e-002,
          2.98352614e-002, 7.82978314e-004, -1.14982075e-003,
          1.01481250e-003, -1.58846155e-002, 1.01058744e-003,
          -1.15411007e-003, -9.73587669e-003, 7.84780190e-004,
          1.09911365e-002, 6.41938532e-004, -1.05313854e-002,
          1.54689152e-003, -1.62598379e-002, -7.91138317e-003,
          4.69145970e-003, 8.20239708e-002, 1.64667290e-004,
          -1.09707250e-003, 1.81481186e-002, 3.33496206e-003,
          -1.23114288e-002, 4.13399935e-003, 1.59269702e-002,
          3.61669227e-003, 6.23843167e-003, -3.90007906e-003,
          -5.19001973e-004, -1.76906481e-001, -8.48222175e-004,
          9.20619350e-003, -1.15207536e-002, 3.30364564e-003,
          -4.60933149e-002, -1.00718969e-002, 9.21019353e-004,
          -2.68067598e-001, 2.58526132e-002, 7.00833043e-003,
          -1.09422472e-005, -1.48614999e-002, -1.26806076e-003,
          -1.35461404e-003, -6.75582979e-003, -7.55664718e-004,
          1.95977045e-004, 1.18425805e-002, -3.54351080e-003,
          5.43181610e-004, 1.83615682e-003, -2.92954384e-003, 0.,
          -9.12371266e-004, 2.95820385e-002, 8.98414510e-005,
          -8.38398561e-003, 4.04201774e-003, -1.46784689e-002,
          -6.69115083e-003, -2.03401037e-002, -8.54088552e-003, 0.,
          6.51899874e-002, -6.02132687e-003, 5.52631216e-003,
          -3.35223018e-003, -2.13036267e-003, 2.06914432e-002,
          -1.46534583e-002, -9.64851677e-003, -2.02582567e-003,
          1.50843365e-002, 1.44564528e-002, 1.43064419e-003,
          -1.45256621e-004, -7.70912087e-003, -7.04976171e-003,
          1.66895008e-003, 9.58928652e-003, -4.02877573e-004,
          8.32462776e-003, 3.22847976e-004, 7.96036422e-003,
          -1.48974755e-003, -4.98239940e-004, 4.81214607e-003,
          -8.56660679e-003, -2.56004790e-003, -1.94323398e-002,
          -8.02568247e-005, 2.69036070e-002, 1.76335906e-003,
          1.38927484e-004, 1.24128200e-001, -1.09291589e-002,
          3.64172715e-003, -6.00761035e-003, -4.13136091e-003,
          -2.81828269e-003, 5.51538123e-003, 6.94402494e-003,
          2.91320751e-003, 0., 1.58251487e-002, 1.48544263e-004,
          2.04475317e-002, 3.22933332e-003, -3.78898904e-002,
          -3.83917912e-004, -1.66612945e-003, 2.81996243e-002,
          1.76209735e-003, -8.60767905e-003, -1.77318230e-002,
          -7.19861686e-003, -2.56040804e-002, -2.88465945e-003,
          -3.25105265e-002, -2.26114765e-002, -1.98763385e-002,
          3.75419797e-004, -2.04753620e-003, 3.04748444e-003,
          -6.59158593e-003, 3.77193391e-002, 2.05238722e-003,
          -1.71725452e-003, 1.45157622e-002, 6.70656860e-002,
          -1.98609731e-003, -2.71173520e-003, -1.98240130e-004,
          -1.46382824e-002, -1.53940113e-003, 5.11528319e-003,
          -7.37296650e-003, -4.87209205e-003, 3.71636217e-003,
          2.30537448e-003, 0., -6.36940962e-003, -1.20138228e-001,
          1.40911872e-002, -3.91976116e-003, -1.43905811e-003,
          -6.32703770e-003, 9.18152928e-003, 0., 3.68636381e-003,
          -5.56400046e-003, 1.18906107e-002, 2.43136324e-002,
          3.71054932e-003, 1.52048480e-003, 6.65560216e-002,
          -1.39490387e-003, -4.20234492e-003, 1.95427388e-002,
          1.30820656e-002, -9.99634340e-003, 8.45001545e-003,
          -3.65457758e-002, -9.31021012e-003, 2.41841166e-003,
          1.31134521e-002, 2.82311859e-003, -7.35654728e-003,
          2.54965085e-003, -3.09095997e-003, -5.14677577e-002,
          -6.60319924e-002, 1.11667707e-003, 8.83306284e-003,
          7.02966063e-004, -1.30285965e-002, 4.17488627e-003,
          -1.25199690e-001, 9.82920825e-003, 3.26134334e-003,
          3.77638964e-003, -4.02637161e-002, 1.38927484e-004,
          -1.50369005e-002, -5.97162358e-003, -1.91682891e-003,
          1.07300123e-002, -1.38160156e-003, -1.40166061e-003,
          -1.16037205e-001, 1.30870361e-002, 1.26813278e-002,
          -6.77722879e-003, -1.44425640e-002, 1.37339858e-003,
          -3.38330120e-002, 6.65131258e-003, 2.11238191e-002,
          -7.68475188e-003, 0., 1.14734657e-002, -5.34597784e-003, 0.,
          1.31969783e-003, 9.31845978e-003, 0., -4.58906032e-002,
          2.68876000e-004, 4.59979400e-002, -5.55019127e-003,
          -1.02516571e-002, 1.23167050e-003, -5.53302281e-003,
          2.97422148e-002, -1.19790714e-002, -3.56194866e-003,
          9.52543784e-003, 3.03534069e-003, -7.09879911e-003,
          3.37265767e-002, 7.03178765e-003, 1.02243495e-004,
          -4.77324799e-003, 1.13482191e-003, 5.40059851e-003,
          2.21109167e-002, -4.82794177e-003, -7.25327292e-003,
          -9.13578179e-003, -8.03419296e-003, 1.63697619e-002,
          1.91566697e-003, 3.85830440e-002, 1.97548643e-002,
          2.70974506e-002, 3.96326147e-002, 0., 1.61141949e-003,
          -1.10805947e-002, -1.73864351e-003, -1.83793735e-002,
          7.01005850e-003, -9.83318966e-003, -3.69714154e-003, 0.,
          1.22161638e-002, 2.03936780e-003, -1.57696288e-002,
          -1.35329245e-002, -7.94658065e-003, 0., -1.25912862e-004,
          5.97436680e-003, -2.05774605e-002, -5.27929440e-002,
          1.14859957e-002, -7.18732970e-003, -3.77025567e-002,
          -8.49909484e-002, 0., 0., -1.88267589e-001, 0.,
          5.00133960e-003, 0., -5.19679952e-003, 2.91598123e-003,
          -5.81214530e-003, -2.51995330e-003, -4.42815870e-002,
          -1.47240246e-002, 7.99972471e-003, 7.58929104e-002,
          -1.25912862e-004, -1.79205369e-002, 0., 6.97836687e-004,
          -2.91778683e-003, 0., 7.41423341e-003, -2.89855083e-003,
          -1.71849560e-002, 2.27879227e-005, 1.88830495e-002,
          -1.20856585e-002, 1.57531188e-003, 3.35266627e-003,
          5.92220994e-003, 4.82025975e-003, -5.10958619e-002,
          -1.58621483e-002, -3.91162280e-003, 2.29129172e-003,
          1.15671195e-002, -4.85561043e-002, 8.06451589e-003,
          -6.59949519e-003, 8.16637129e-002, -2.01409450e-003, 0.,
          -9.86742601e-003, -2.71236547e-003, 4.18876018e-003,
          1.93244610e-002, 4.99640882e-004, 5.26928157e-003,
          -1.72277447e-002, 3.98921687e-003, -9.01671592e-003,
          5.97970095e-003, -1.85477100e-002, 7.28506669e-002,
          -2.49889996e-002, -8.71761702e-004, -1.67820808e-002,
          5.78674637e-002, 1.66439116e-002, 1.25878137e-002,
          2.53022965e-002, 0., -1.12695491e-003, -6.04145341e-002,
          5.10901911e-003, 1.77519105e-004, 3.24840732e-002,
          -4.30025952e-003, -1.80392712e-002, -2.32443810e-002,
          -7.68329110e-003, -1.69891547e-002, 0., -2.33337213e-003,
          -1.26279332e-003, 5.60872722e-003, 1.01250976e-001,
          7.55045339e-002, 2.35630367e-002, 0., 0., -2.55612563e-003,
          -2.15635286e-004, 0., 9.33545455e-003, 5.47279641e-002,
          -3.65022458e-002, 6.72958372e-003, 2.91501936e-002, 0.,
          1.09054912e-002, 3.91823333e-003, -2.74336077e-002,
          -3.88031490e-002, -1.29650682e-001, -2.37833727e-002,
          -1.78038031e-002, -1.26742711e-003, -2.31292844e-002,
          5.68416789e-002, 0., 3.66554745e-002, -1.25912862e-004, 0.,
          1.38568040e-002, 1.69642251e-002, -1.89837683e-002,
          -1.40285669e-002, 1.45551637e-002, 2.90074460e-002,
          -3.69469523e-002, 1.29876444e-002, 6.23738859e-003,
          -5.40208071e-002, -6.23490475e-003, -2.05539595e-002,
          -1.53764326e-003, 3.90268192e-002, 0., -1.33022740e-002,
          6.34766510e-003, 0., -1.57326415e-001, 0., -3.77989467e-003,
          -2.91708205e-002, 3.92010584e-002, -2.40583997e-002,
          7.80705479e-004, 1.77117321e-003, 5.13913529e-003,
          3.79309896e-003, 8.33453145e-003, 1.17183207e-002,
          1.10389916e-002, 9.39659774e-002, 6.39315769e-002,
          -4.46475158e-003, 5.89813180e-002, 7.83539712e-002,
          -8.27732384e-002, 6.21487806e-003, -4.71727736e-003,
          4.22869157e-003, -3.86315660e-004, 5.01704961e-003,
          8.65443330e-003, 0., -4.06044684e-002, 1.68688167e-002,
          -3.22459964e-003, -2.50334423e-002, 2.56779134e-001,
          6.47142753e-002, 1.06214220e-002, -6.30706549e-002,
          -5.30045107e-003, 0., -1.16549674e-002, -5.75953489e-003,
          -1.57052949e-002, 1.41534349e-002, 2.60594822e-002,
          -2.92247720e-002, -1.37574626e-002, 9.31236485e-004,
          -1.49282080e-003, -1.00633137e-001, -7.45615782e-003,
          1.42093201e-003, -7.35294120e-003, 8.64809975e-002, 0.,
          4.30037081e-002, -1.01458896e-002, 5.18343225e-003,
          -1.51456322e-003, 6.70026988e-003, -1.00671230e-002,
          -3.24896886e-003, 4.59836423e-003, -5.36019132e-002,
          2.67551187e-003, 3.67203839e-002, 0., 2.96562482e-002,
          -1.60944220e-002, -4.89341356e-002, -6.73438981e-003,
          -2.02916050e-003, -1.24187432e-002, 6.01016684e-003,
          -1.90447450e-001, -3.66036966e-003, 2.32506753e-003,
          -2.48047546e-003, -1.54636742e-003, 2.44257338e-002,
          3.23828049e-002, -8.74095655e-004, 2.06144829e-003,
          9.98108089e-003, -1.61560878e-001, 1.19514074e-002,
          3.73851433e-002, -1.04967589e-002, 5.04969014e-003,
          -5.47382794e-003, 1.14721321e-001, -3.46354842e-002,
          6.53223470e-002, 1.14816865e-002, 5.40352101e-003, 0.,
          7.54767358e-002, -6.14134828e-003, 1.27511770e-002,
          4.38776836e-002, -1.31841376e-003, 7.00371200e-003, 0.,
          3.63357249e-003, -7.20858006e-005, 2.80027208e-003,
          -2.19298247e-003, 1.29157235e-003, -2.90437136e-003, 0.,
          -6.29993621e-004, 3.82164656e-003, 0., -4.11420828e-003,
          -3.57423536e-002, -8.63442644e-002, -2.23103426e-002,
          -4.70415893e-004, 0., 1.26714390e-002, -5.41727524e-003,
          3.28983297e-003, -3.12680379e-004, -7.36314338e-004,
          -8.82484019e-003, 3.99985071e-003, -3.13212373e-003,
          1.23060439e-002, 0., -1.39893527e-004, 7.53361499e-003,
          -4.35209787e-003, 4.41353023e-003, 1.19612012e-002,
          6.02161698e-002, 4.17461619e-002, 6.06395714e-002,
          4.01695594e-002, 1.65098682e-002, 7.80357793e-003,
          -1.03114014e-002, -3.27286646e-002, 7.01900525e-003,
          1.48402154e-003, -2.23669168e-002, 2.45098048e-003,
          8.55397712e-003, 0., -3.54594016e-003, 2.21312279e-003,
          5.48111238e-002, -3.13451365e-002, -5.32645779e-003,
          1.09900925e-002, 2.88763363e-003, -1.42045459e-003,
          1.19932350e-002, 9.82640963e-003, -1.45494668e-002,
          -1.09985343e-003, -1.03057151e-004, -7.20664673e-003,
          -2.81238492e-004, -4.05224413e-002, 9.84597718e-004,
          -9.68426317e-002, 4.05471493e-003, -5.19390889e-002,
          3.36141326e-002, -1.19392369e-002, -9.88296866e-002,
          -1.41952699e-002, -1.22738467e-003, 2.34524563e-001,
          -1.13486443e-002, 1.33482767e-002, 1.27446617e-003,
          -5.11473324e-003, -4.18410031e-003, -1.42787183e-002,
          -1.65736582e-002, -3.70370364e-003, 7.98181072e-003,
          -4.50819964e-003, 2.09782878e-003, 3.43257957e-003,
          1.39515789e-003, -4.09155339e-003, 0., 6.77957246e-003,
          1.28596006e-002, 1.51452562e-003, -2.83519132e-003,
          -2.48374660e-002, 7.41470233e-003, -1.64674741e-004,
          1.67032350e-002, -2.84480676e-002, 0., 4.34033051e-002,
          -1.12258699e-002, -1.37789184e-002, 7.80485896e-003,
          -2.61917739e-004, 7.68105593e-003, 9.67682451e-002,
          -2.31807912e-003, -7.93650805e-004, 1.53501611e-002,
          1.21322274e-002, -8.04644078e-004, 4.79038479e-003,
          -2.45180391e-002, -8.56977329e-003, 4.69350070e-003,
          -1.72780398e-002, -1.62814278e-002, 2.31334735e-002, 0.,
          -6.23299787e-003, -4.98398161e-003, 5.75418584e-003,
          -1.97805418e-003, -3.62241874e-004, -2.22972129e-003,
          -9.29113477e-002, -2.51825724e-004, 5.43093495e-003,
          9.08256788e-003, 0., 6.16890080e-002, -4.42278385e-003,
          1.95064419e-003, -1.23288676e-001, 2.02328013e-003,
          4.16065537e-004, 1.16571877e-002, 1.31139820e-002,
          -1.91136729e-003, 0., 5.52177876e-002, 0., 2.97158826e-002,
          -7.41401804e-004, -1.04232036e-001, -1.13688048e-003,
          -6.14194083e-004, 3.37724313e-002, 1.12540480e-002,
          2.63990182e-003, -7.17432145e-003, -1.42272022e-002,
          -5.34645794e-003, 6.52540335e-003, 9.90168303e-002,
          -6.08779192e-002, 1.38469622e-001, 4.25254926e-003,
          2.09032092e-002, 8.28918535e-003, -1.91227477e-002,
          3.96271311e-002, -5.45892632e-003, -6.89831981e-003,
          6.99147210e-002, 9.80679244e-002, 0., -9.25620832e-003,
          -1.58531195e-003, 9.30410344e-003, -7.70024676e-003,
          -1.18291238e-002, -7.57579971e-003, -1.74274575e-002,
          -4.05749260e-003, -2.85074338e-002, 0., -5.13885519e-004,
          -1.58767492e-001, 9.58952773e-003, -1.13178929e-002,
          2.85162264e-003, -6.31213840e-003, 7.61768408e-003, 0.,
          -7.23046949e-003, 6.73750490e-002, 2.46216496e-003,
          2.36861929e-002, 0., -3.41538666e-003, 2.60631857e-003,
          -5.67371631e-003, -1.33518986e-002, 1.01928748e-002,
          -5.42391231e-003, -2.15084967e-003, 1.07537694e-002,
          -6.72710463e-002, -2.76780147e-002, 2.94311391e-003,
          7.78189301e-003, 7.34325033e-003, -4.51210402e-002,
          3.93764721e-003, -1.70600917e-002, -7.06553385e-002,
          -6.67875707e-002, 1.20012695e-002, 3.29876784e-003,
          4.61511351e-002, -8.31516925e-003, -9.47384723e-003,
          -1.19473971e-001, 1.90393496e-002, 5.18499687e-003,
          -5.53632015e-003, -1.29512280e-001, 0., -1.13410214e-002,
          -3.03030293e-003, 5.31624304e-004, 1.11981593e-002,
          3.14166164e-003, -1.02324560e-002, 2.30801618e-003,
          5.20037394e-003, 6.99958671e-003, -6.16920693e-003,
          1.30140737e-001, -2.40728282e-003, -1.58101693e-002,
          5.44342538e-003, -3.70580852e-002, 4.44129854e-003, 0.,
          3.99940088e-002, 8.55032413e-004, 0., 1.51452562e-003,
          1.51766613e-002, 0., -2.63677053e-002, -9.77878645e-003,
          1.01508707e-001, -1.24197761e-002, 8.58043600e-003, 0.,
          -1.86619144e-002, 2.57696267e-002, -2.75126603e-002,
          -1.06439302e-002, -1.48857804e-002, 0., 4.21183067e-004,
          3.49377766e-002, -1.08161550e-002, -1.86767516e-004,
          -3.15551367e-003, 1.46952190e-003, 2.22517154e-003,
          9.16513354e-002, -1.42798955e-002, -3.01842373e-002,
          -2.53547113e-002, 6.60259603e-003, 2.38829330e-002,
          6.25858176e-003, -1.45388637e-002, 2.78170072e-002,
          7.05202064e-003, -3.85559350e-002, 0., 3.83034791e-003,
          9.89265461e-003, -1.04440926e-002, -4.08905707e-002,
          8.39372911e-003, -1.64603593e-003, 3.31351184e-003,
          3.69685760e-004, -3.76334810e-003, 0., 6.63239881e-002,
          1.48122674e-002, 1.54656284e-002, 4.08163248e-003, 0.,
          1.71647482e-002, -6.01223297e-003, 1.09566678e-003,
          5.57859764e-002, 2.39338638e-004, -1.31805703e-001,
          1.58917289e-002, -9.25925933e-003, -6.28535519e-004,
          -1.58999637e-001, 0., 1.33742823e-003, 0., -2.46497779e-003,
          1.37939313e-002, -2.33959407e-004, -5.01624495e-003,
          -5.96864671e-002, 2.68422943e-002, 1.00961523e-002,
          4.24397960e-002, 0., -1.79018378e-002, -4.97512426e-003,
          -8.96057347e-004, 2.50008819e-003, 3.23514431e-003,
          1.27254911e-002, 0., 6.97025144e-003, 4.81056893e-004,
          2.49896944e-002, -5.24906293e-002, -1.95037555e-002,
          -1.53069035e-004, -1.17687578e-003, 1.54125327e-002,
          9.97016765e-003, -3.39785684e-003, -7.34571274e-003,
          -1.29870130e-002, 7.38423178e-003, -4.48085479e-002,
          6.00644248e-003, 3.84248886e-003, 7.19785392e-002,
          2.94985250e-003, 2.36242241e-003, -1.83088481e-002,
          6.51926559e-004, 6.70805667e-003, -1.99862830e-002,
          -1.42520163e-002, 3.19276564e-003, 5.86910471e-002,
          -4.59207105e-004, -2.06008763e-003, -1.09747518e-004,
          -4.68047410e-002, 6.36752322e-002, -1.85931791e-002,
          2.02919580e-002, 6.14471128e-003, -5.81400953e-002,
          2.21293233e-002, 1.72422379e-002, -6.15786761e-003, 0.,
          2.67611607e-003, -2.31129341e-002, -1.08411340e-002,
          6.88491738e-004, 2.10666787e-002, 5.92555245e-003,
          -2.50230525e-002, -4.35000136e-002, 1.78742893e-002,
          2.44902074e-002, 0., -2.05059741e-002, -3.75939859e-003,
          -8.25659465e-003, 1.84158683e-001, -4.22445079e-003,
          2.24211272e-002, 0., 0., -1.36644924e-002, -9.50022787e-003,
          0., -1.49851963e-002, 1.43039403e-002, 1.78668101e-003,
          3.58247710e-003, 3.61841992e-002, 0., 2.63242796e-002,
          7.92855863e-003, -2.51284353e-002, 1.27147352e-002,
          7.57818073e-002, -3.40577587e-002, 8.94933660e-003, 0.,
          6.02615178e-002, 6.46371469e-002, 0., 2.21887618e-001, 0.,
          5.47645148e-004, 1.13507556e-002, 5.89838251e-002,
          -6.48968518e-002, -2.46844944e-002, -4.18244256e-003,
          4.45335880e-002, 2.39638668e-002, 4.72801598e-003,
          -2.74898559e-002, -1.34519022e-002, -2.31606839e-003,
          -1.58483209e-003, -1.21266041e-002, 1.55241797e-002,
          -1.27504123e-002, -4.52018231e-002, -4.98918518e-002, 0.,
          8.69412869e-002, 0., -6.81954529e-003, -8.91358941e-004,
          1.34593584e-002, -3.25308926e-002, -2.20785383e-004,
          2.83305557e-003, -1.35117013e-003, 1.08966604e-002,
          4.99992222e-002, -3.19573167e-003, 1.58814937e-002,
          -4.66593057e-002, 4.74481024e-002, 1.75643917e-002,
          9.46047604e-002, -5.75931594e-002, -1.85009334e-002,
          -7.91933853e-003, 2.40384624e-003, -4.53792997e-002,
          -7.55359884e-003, 2.01612897e-003, 7.93901645e-003, 0.,
          9.16553754e-003, 3.24100582e-003, 0., -1.75640266e-002,
          7.84616992e-002, -4.81259003e-002, -5.24739400e-002,
          6.78756237e-002, -5.56963263e-003, 0., -2.07074569e-003,
          1.09681664e-002, 5.95913548e-003, 1.78247411e-002,
          4.02697586e-002, -6.53582066e-002, 1.24342972e-003,
          -8.96057347e-004, 2.70519495e-001, 9.81128737e-002,
          2.11143140e-002, -4.57730284e-003, -2.72479560e-003,
          1.10843442e-001, 5.47645148e-004, 7.26219313e-003,
          -3.78682651e-003, -1.47762662e-003, -4.67712106e-003,
          -1.28422200e-003, 0., 1.63508058e-002, 6.31769001e-002,
          4.78296131e-002, 2.95396056e-002, 6.31064102e-002,
          1.39399134e-002, 8.84858295e-002, -6.93280762e-003,
          -8.92794412e-003, -4.95141819e-002, 3.69685760e-004,
          2.50815004e-002, -3.05200275e-002, -1.16758190e-001,
          -2.72424455e-004, -1.53069035e-004, 1.15306594e-003,
          -2.18312945e-002, -3.85109335e-002, 3.03786743e-004,
          2.64151543e-002, -1.80457707e-003, 1.08552696e-002,
          3.74841429e-002, -1.70670331e-001, 3.90721951e-003,
          -2.47057527e-003, -5.16656414e-002, 6.23642839e-003,
          -1.49844307e-002, 3.07629127e-002, 6.73023835e-002,
          1.58239696e-002, -3.88854998e-003, -5.64229349e-003,
          -3.82791758e-002, -6.80455267e-002, -1.18064918e-002,
          -2.59046331e-002, -1.79705629e-003, 6.43347390e-003,
          -4.63161059e-003, 4.74498905e-002, 0., -4.91300270e-005,
          -1.50914816e-003, -1.53763557e-003, -2.95373425e-003, 0.,
          -3.65877477e-003, 9.08521563e-003, 0., -6.97872695e-003,
          1.44891534e-002, -1.07975407e-002, -2.47628223e-002, 0., 0.,
          -1.12471133e-002, -2.41461094e-003, 0., -4.68821125e-003,
          2.08449960e-002, -3.52994679e-003, 1.58891920e-002,
          1.22528709e-002, 8.63705110e-003, -3.69146769e-003,
          -3.90625000e-003, 1.99268088e-002, 7.15596834e-003,
          -3.71349673e-003, 1.43122124e-002, -1.09736770e-002,
          4.57017086e-002, 2.12844890e-002, 5.37157580e-002,
          -3.72707769e-002, -1.02267507e-002, 6.39781030e-003,
          -3.71454582e-002, 3.69685760e-004, 7.98958074e-003,
          -4.68078628e-002, 0., 3.99087705e-002, -1.94552529e-003,
          -8.70776083e-003, 2.46985536e-003, -2.84746028e-002,
          3.07169138e-003, 1.08640706e-002, 7.49032199e-003,
          -1.99763440e-002, -3.64977680e-003, 5.01068980e-002,
          -1.87553149e-002, 1.12432393e-003, 3.34506645e-003,
          2.74561672e-003, 2.75699841e-003, -1.25897462e-002,
          -1.80394929e-002, 0., -2.69879520e-001, -1.25576938e-002,
          -1.80626232e-002, -1.85376443e-002, 1.11460965e-002,
          6.02099579e-003, -3.81762534e-002, -3.06426268e-003,
          -5.24298906e-001, 2.90639997e-002, -9.93527006e-003, 0.,
          -6.23385794e-003, 3.23514431e-003, -2.29896456e-002,
          1.23118907e-002, 2.01612897e-003, -1.24154221e-002,
          2.40629967e-002, 4.17053280e-003, 1.24634597e-002,
          -4.63415449e-003, -8.71425215e-003, 0., 7.92651437e-003,
          4.51648496e-002, 2.03792797e-003, -1.04284954e-004,
          1.72057785e-002, -3.45381093e-004, -1.29548227e-002,
          -1.79542489e-002, 3.27060558e-003, 0., 4.81159948e-002,
          -7.34680332e-003, 1.89764276e-002, 9.53471521e-004,
          8.01544730e-003, -5.03401011e-002, 5.35091199e-002,
          -2.01490540e-002, 0., 3.47560421e-002, 9.04466491e-003,
          2.40384624e-003, -2.17564348e-002, -5.69244195e-003,
          -1.78222673e-003, -1.76634430e-003, -1.04699461e-002,
          4.68391227e-003, 4.12229775e-003, 0., -2.04614177e-003, 0., 0.,
          1.21365488e-002, -3.39145102e-002, -4.65605734e-003,
          2.99126673e-002, 0., 8.62246826e-002, -3.87028442e-004,
          3.69685760e-004, 1.04538545e-001, 6.64128270e-003,
          1.81441829e-002, -3.18230465e-002, 9.15685296e-002,
          6.06060587e-003, 8.15562624e-003, 1.73288416e-002,
          9.16564930e-003, 0., 2.16474086e-002, 0., 1.47647783e-002,
          2.95033846e-002, 2.02198811e-002, 0., 2.76165456e-003,
          2.65947990e-002, 2.66527850e-002, -1.10965902e-002,
          -5.08690672e-003, 3.62828863e-003, -2.55224742e-002,
          -7.02120690e-003, -2.84877419e-001, 4.28362750e-002,
          -5.95798232e-002, 8.33040476e-003, -7.72703532e-003,
          -7.61584332e-003, -6.97598094e-004, -3.06399837e-002,
          -1.60256412e-003, 1.38070984e-002, -9.88998637e-002,
          7.78066814e-002, -7.01754401e-003, 0., 2.68907845e-003,
          -4.26124921e-003, 6.31413888e-003, 2.12311000e-003,
          -2.24722736e-003, 0., -7.63097033e-003, 4.98807058e-002, 0.,
          6.89146994e-003, 9.51357093e-003, 1.76624339e-002,
          -5.58532029e-003, 2.56377412e-003, -2.70234025e-003,
          5.24153421e-003, 0., -4.83974960e-004, -1.17727213e-001,
          -3.68947303e-003, 5.25734089e-002, 0., 1.05568897e-002,
          5.88700138e-002, 1.95333362e-003, 0., 1.70176029e-002,
          1.67074613e-002, -6.94614928e-003, 1.92607082e-002,
          1.11570038e-001, 1.62631739e-002, 0., 2.82030609e-002,
          1.09529030e-003, 2.14291699e-002, -7.75452412e-004,
          2.35000476e-002, -8.31558481e-002, -7.70965517e-002,
          -1.73812779e-003, 1.86147932e-002, -1.20516397e-001,
          -1.87739264e-002, -2.62913876e-003, -2.27800861e-001,
          8.62697326e-003, 3.24692368e-003, 2.49646585e-002,
          -3.70242372e-002, 0., -1.96553627e-003, 8.59928317e-003,
          9.71374381e-003, 2.92776152e-002, 7.08792638e-003,
          -2.37357896e-002, -2.67730176e-001, 1.23223281e-002,
          2.82101752e-003, 1.13309957e-002, 5.05883731e-002,
          3.10659991e-003, -5.78012541e-002, 4.65501612e-003,
          3.86368968e-002, -9.70745459e-003, 0., 1.63793359e-002,
          1.99081586e-003, 0., 3.54507519e-003, 1.67492009e-003, 0.,
          -1.18995488e-001, -3.07227927e-003, 6.31473884e-002,
          2.11900729e-003, 1.54912313e-002, 0., 1.29911132e-004,
          4.34447788e-002, 3.16784866e-002, -2.80592684e-003,
          4.33489121e-003, 3.11445328e-003, -1.53387729e-002,
          -1.31906038e-002, 1.35273812e-002, 4.81056893e-004,
          7.94943143e-003, 2.52736243e-003, 1.05015151e-002,
          2.99767096e-004, 6.64958905e-004, 0., -2.55365055e-002,
          -2.52987389e-002, 3.20787244e-002, -3.67575139e-002,
          -8.74589197e-003, 4.24243435e-002, 3.13287079e-002,
          4.17937525e-002, 0., 7.00162025e-003, -3.34453285e-002,
          -1.67817995e-003, 7.34990835e-002, -9.57830343e-003,
          -5.51383905e-002, 5.31634130e-003, 2.36966833e-003,
          1.40322279e-002, 0., -1.29021322e-002, -7.91306421e-003,
          3.27945896e-003, 0., 0., 1.15555301e-002, -2.39709988e-002,
          -3.18278559e-002, 1.15502337e-002, 3.53222340e-003,
          1.04338396e-002, 2.38296390e-002, 2.79527507e-003, 0.,
          -1.53596327e-002, 0., 3.92041286e-004, 0., 1.06175640e-003,
          4.90025245e-003, 7.33820780e-004, -1.17863587e-003,
          -4.37171347e-002, -2.12281123e-002, -7.02832767e-004,
          -1.08932890e-002, 4.27424535e-003, 1.41278552e-002,
          6.94444450e-003, 0., -1.05882052e-003, -5.24138659e-003,
          8.23055767e-003, -1.24871405e-002, -2.62146778e-002,
          1.71085319e-003, -2.02762801e-002, -2.68601850e-002,
          6.69905508e-004, -2.77081504e-003, -1.80135877e-003,
          -7.48390958e-005, -7.67081976e-002, 5.67616485e-002,
          3.62416380e-003, -1.31643694e-002, -1.96620356e-002,
          -4.69832756e-002, -2.61574693e-004, -6.30850391e-003,
          7.90822655e-002, 0., 0., 5.90778887e-003, -1.52683759e-003,
          2.64765183e-003, -9.20095388e-003, 1.23305554e-002,
          -7.93247577e-003, 2.07826272e-002, 1.03841652e-003,
          -1.41539332e-003, 4.55238819e-002, -1.95749532e-002,
          -1.50221601e-001, 1.63768511e-002, 2.83379853e-002,
          -2.24046111e-002, -3.24670002e-002, -8.89371242e-003,
          1.57948944e-003, -5.58441915e-002, 0., 1.19064411e-003,
          5.01656868e-002, 9.26804321e-004, 1.01885376e-002,
          2.39449320e-003, -1.62733937e-004, 3.40877660e-003,
          1.30517641e-002, 5.09133283e-003, -9.53675061e-003,
          2.16309843e-003, 1.41570810e-002, -2.10091518e-003,
          -9.27247014e-003, 1.83317617e-001, -1.59872335e-003,
          -4.97493939e-003, 0., 0., -6.94643054e-003, 8.64960346e-003,
          0., -5.74672734e-003, 2.21789796e-002, 3.86716984e-003,
          -3.03343311e-003, 1.26962870e-001, 1.26917416e-003,
          -6.89244457e-003, -2.29553625e-004, -1.64088681e-002,
          -2.51633897e-002, 2.96990518e-002, -7.65908584e-002,
          1.26676692e-004, 1.80228439e-003, -1.50572527e-002,
          3.03132292e-002, 5.81395347e-004, 1.46974206e-001, 0., 0.,
          -5.27967419e-003, 7.71489274e-003, -4.31704298e-002,
          1.28441043e-002, 6.83333201e-005, 7.36667356e-003,
          -2.42129881e-002, -3.50147975e-003, 1.12613663e-002,
          -9.22125112e-003, -2.46718759e-003, -2.12567542e-002,
          1.20819132e-004, 1.85693447e-002, -4.40846256e-004,
          1.05828457e-002, 3.70762590e-003, -7.92677887e-003,
          -1.72548324e-001, -9.79431905e-004, -1.37450732e-002,
          -1.21212769e-002, -1.48655027e-002, -3.06684226e-002,
          -3.00364313e-003, 1.25811929e-002, 7.57740345e-003,
          -7.00652879e-003, 3.67280319e-002, 6.52245304e-004,
          -7.72192795e-003, 7.09256753e-002, 4.17831056e-002,
          5.33869900e-002, -1.43393083e-002, 5.04424982e-002,
          6.99691847e-002, -6.56952057e-003, 4.92553506e-003,
          2.27368046e-002, 3.96768712e-002, 0., -1.49896210e-002,
          -1.38041470e-003, -2.75537968e-002, 7.92767480e-003,
          3.55792441e-003, 1.42724775e-002, 2.16024995e-001,
          1.66289881e-002, -2.11113244e-002, -3.29499990e-002,
          -5.13137830e-003, 0., 4.25108895e-003, 2.69101583e-003,
          1.29610868e-002, -6.14124024e-003, -5.15594631e-002,
          -2.44786330e-002, -5.42192766e-003, 4.59786411e-003,
          1.99767724e-001, 5.06181866e-002, -1.71020348e-002,
          4.88565397e-003, 2.38072965e-003, 4.09386680e-002,
          1.73199223e-003, -2.97985934e-002, 3.78787890e-003,
          4.91455710e-003, -3.40763889e-002, 1.43922037e-002, 0.,
          1.23187825e-002, 4.99906726e-002, -5.66395698e-003,
          2.65360009e-002, 9.41287801e-002, -2.83377478e-003,
          -3.56070092e-003, -3.37381363e-002, -6.29906058e-002,
          -2.69087907e-002, 2.80165626e-003, 2.77947751e-003,
          -1.35237034e-002, -1.06204271e-001, -1.58515165e-003,
          1.51285925e-003, -4.77014482e-003, 5.58659201e-004,
          -1.59321763e-002, 7.76195945e-003, -2.60080420e-003,
          6.14323700e-003, -6.64108340e-003, -5.54604866e-002,
          1.70740988e-002, -2.15354804e-002, 6.39349082e-003,
          -5.22677340e-002, 7.07677007e-002, 6.54709861e-002,
          -4.79880720e-002, -8.78021773e-003, 3.62718217e-002,
          -1.43242264e-002, 5.61569445e-003, 3.56604606e-002,
          4.72685415e-003, -4.23005968e-003, 1.77134536e-002,
          -3.00829876e-002, 1.66827673e-003, -1.61174708e-003,
          1.32945878e-002, 3.75729217e-003, -2.00987253e-002,
          2.33835191e-003, -1.62733937e-004, -8.96330457e-003, 0.,
          -1.89817213e-002, 3.52312229e-003, -5.49450563e-003,
          4.96818312e-003, -2.06881464e-002, 1.05299207e-003,
          -8.23069643e-003, -7.92677887e-003, -2.61574693e-004,
          -4.54291375e-003, 3.21615785e-002, 0., -5.55587048e-003,
          1.06970370e-002, -3.58923152e-002, 4.60006716e-003,
          4.23631584e-003, 2.03231815e-002, -3.97896627e-003,
          2.48725037e-003, 1.06294202e-002, 1.35969473e-002,
          -3.25467874e-004, -1.06814988e-002, 6.71302229e-002,
          7.07067400e-002, -6.80348873e-002, 4.98128161e-002,
          2.50234827e-002, -1.62733937e-004, -1.62733937e-004,
          2.52821427e-002, -4.32235701e-003, -9.96695831e-004,
          -8.82597454e-003, -2.34192028e-003, -4.43940284e-004, 0.,
          -4.55438998e-003, 7.21254805e-003, -1.72895321e-003,
          -4.69676591e-003, 5.66494651e-003, 8.76026005e-002,
          -5.16689615e-004, -3.15511529e-003, 1.87413096e-002,
          -1.17231784e-002, -7.17176916e-003, 3.37025500e-003,
          2.50883158e-002, -3.05385189e-003, 3.69146578e-002,
          6.73244987e-003, -4.15365631e-003, -3.12179506e-001,
          2.75139138e-003, 3.24843824e-002, -1.93080753e-002,
          6.62448024e-003, 1.73458848e-002, -1.66028775e-002,
          7.02545000e-003, -5.76865375e-001, 4.98019420e-002,
          6.11554878e-003, -2.42973259e-003, 5.49681499e-005,
          -1.12446696e-002, 1.13246357e-002, -1.49084684e-002,
          -5.45586867e-004, 5.72379772e-003, 2.35570483e-002,
          -9.38188005e-003, 1.11056780e-002, -7.54429679e-003,
          9.69449803e-003, 0., -2.79138424e-002, 2.77094841e-002,
          2.05327477e-003, -1.40711404e-002, 1.34542398e-002,
          -9.10432823e-003, 0., -3.70699912e-003, -6.75754901e-003, 0.,
          1.19369715e-001, 3.28746937e-005, 2.40084584e-004,
          -1.07850954e-002, -1.20103499e-002, 7.64077855e-003,
          -7.40934210e-003, -7.36818591e-004, 0., 2.02976610e-003,
          -1.84805151e-002, 2.29785941e-003, 1.58170308e-003,
          -8.76794197e-003, -7.28816376e-004, -3.25467874e-004,
          2.19987873e-002, -3.60312052e-002, -3.89347947e-003,
          4.93226526e-003, 1.44487573e-002, -4.71969321e-003, 0.,
          5.17462660e-003, -1.50242653e-002, -8.37173488e-004,
          2.24694572e-002, 0., 4.07980494e-002, 2.13334011e-003, 0.,
          2.48899117e-001, -2.31943503e-002, 1.29393023e-002,
          6.08873777e-002, -4.96053174e-002, -2.04792502e-003,
          1.30772288e-003, -1.51777575e-002, 8.60037655e-003, 0.,
          -3.19706835e-003, 0., 4.57025245e-002, -1.59294903e-002,
          -2.56182961e-002, 0., -5.44371782e-003, -5.92404883e-003,
          1.33144902e-002, 1.54427206e-003, -1.90193616e-002,
          3.92995356e-003, 1.48819282e-003, -8.52200086e-004,
          1.28105646e-002, -5.49902208e-004, -4.49321382e-002,
          3.11602210e-003, -5.93246007e-003, 7.14319292e-003,
          1.60757825e-002, -2.17905384e-003, 7.65957823e-003,
          -4.33388120e-003, -1.86335500e-002, 6.57060370e-002, 0.,
          -7.18789524e-004, -6.82272390e-003, -1.96880121e-002,
          -4.14438033e-003, 1.66241527e-002, -2.06429921e-002, 0.,
          6.11908175e-003, 7.05721835e-003, 0., 8.56941845e-003,
          -7.65174255e-002, 1.09723667e-002, -1.66074988e-002,
          9.45022330e-004, -3.20539176e-002, 4.65368183e-004, 0.,
          -2.22442597e-002, 1.03767090e-001, 5.78117631e-002,
          1.60237346e-002, 5.83075359e-003, -1.58544502e-003,
          -1.78608626e-001, -2.64262361e-003, -6.30461238e-003,
          2.20499318e-002, 1.96563732e-002, -1.84157118e-002,
          8.11047852e-003, -3.85347493e-002, -1.01657147e-002,
          1.09155523e-003, 1.33174816e-002, -3.03018978e-003,
          -2.23359931e-002, -9.41841572e-004, 4.50639846e-003,
          -4.77997437e-002, -7.71306306e-002, -7.48860417e-003,
          2.65822411e-002, 1.04371496e-001, 2.75870017e-003,
          6.50449889e-003, -7.57967979e-002, -9.31786373e-003,
          4.18661395e-004, -1.54297790e-002, 2.79429127e-002, 0.,
          -5.06211212e-003, -1.43701574e-002, 2.44733156e-003,
          2.21514255e-002, -3.09047084e-002, -1.22596463e-003,
          -2.67890215e-001, 2.44646594e-002, 3.58655378e-002,
          -2.43742578e-002, -1.73303690e-002, 3.76839307e-003,
          -3.91200222e-002, 6.14780234e-003, 1.74154211e-002,
          -7.85203837e-003, 0., -1.03227645e-002, -1.21962428e-002, 0.,
          -1.51461805e-003, -1.61248061e-003, 0., 9.99626890e-003,
          -1.33223357e-002, 1.29239410e-002, 1.99480169e-003,
          -4.42881025e-002, 1.30039011e-003, -7.05830613e-003,
          3.05372067e-002, -3.59116420e-002, -3.25467874e-004,
          3.82377440e-003, -2.61574693e-004, 2.22808914e-003,
          3.94604616e-002, 3.05125900e-002, -3.18471342e-003,
          9.63861414e-004, -7.13969534e-003, -7.38951331e-003,
          6.64329231e-002, -5.09213610e-003, 1.14212953e-003,
          2.62566330e-003, -1.38071803e-002, 4.08257432e-002,
          3.17777949e-003, -3.40262894e-004, 3.40603143e-002,
          2.99948920e-002, -1.23132020e-002, 0., -3.57655389e-003,
          -1.46289971e-002, -5.70237823e-003, 4.92137037e-002,
          -4.60211607e-003, -5.89719787e-002, 3.38983053e-004,
          7.53012020e-004, 2.77204555e-003, 0., 7.08895624e-002,
          -6.14407752e-003, 5.45894075e-003, -5.80904121e-003,
          3.28947371e-003, 3.43562639e-003, 8.37196875e-003,
          1.01411529e-002, -4.76411469e-002, -1.10184401e-003,
          -1.86677855e-002, 1.67890653e-001, 0., 0., 6.00019358e-002, 0.,
          1.11551834e-002, 0., 2.33790651e-003, -3.06896083e-002,
          1.72956344e-002, -4.20752494e-003, -1.74887162e-002,
          1.81801263e-002, -5.96836815e-003, -5.10140322e-002,
          2.09788047e-003, 1.96329262e-002, 0., -3.27345170e-003,
          2.28664698e-003, -2.30259518e-003, -1.08534545e-002, 0.,
          -2.54385127e-003, 0., -1.81306452e-002, -8.69258791e-002,
          -1.57243875e-003, -2.53485428e-004, 4.12959000e-003,
          4.16183146e-003, -2.94462852e-002, 2.52139233e-002,
          -1.08559914e-002, -3.90771814e-002, -1.28537333e-002,
          -1.69253279e-003, 0., -1.69787779e-002, 5.44852503e-002,
          5.67111606e-003, 0., -5.32620959e-002, 1.74028855e-002,
          5.18134702e-003, 9.89557151e-003, 1.27302557e-002,
          1.12167941e-002, -1.95843801e-002, 6.09820988e-003,
          -6.30187895e-003, -4.27849293e-002, -2.42615975e-002,
          8.03598389e-003, 1.38228135e-002, 1.68455578e-002,
          1.20381219e-002, -9.20541771e-003, 1.24318078e-002,
          2.88875494e-002, -5.48270494e-002, 0., -1.13535170e-002,
          -2.13902779e-002, -5.13851736e-003, -5.23926364e-003,
          2.81302072e-002, 1.79390442e-002, -3.13232951e-002,
          -2.02879822e-003, 3.18324976e-002, 1.35675939e-002,
          -4.25531901e-003, 2.15293206e-002, 1.19375276e-004,
          -7.12270569e-003, -1.01298004e-001, 7.17015043e-002,
          2.12564245e-002, 0., 0., -3.40321683e-003, -2.97811604e-003,
          1.94444566e-003, 5.12185367e-003, 1.98627245e-002,
          -3.80045250e-002, -8.36554356e-003, 7.57799223e-002, 0.,
          2.09659506e-002, 0., -5.01573682e-002, 1.87184829e-002,
          1.06103897e-001, -4.32632603e-002, -5.38483169e-003, 0.,
          -1.11785543e-003, 2.97277290e-002, 0., 6.15944602e-002,
          1.56739808e-003, 0., -1.22429160e-002, -3.29540623e-003,
          -3.21722105e-002, -9.78744682e-003, 1.19375276e-004,
          4.57445271e-002, -3.46657704e-003, 1.67043544e-002,
          -1.02430160e-004, 1.21348565e-002, -6.12722570e-003,
          -9.36619588e-004, -1.41126858e-002, 3.64779942e-002,
          -2.12479848e-002, 2.88528809e-003, 1.72964018e-003, 0.,
          -3.37445527e-001, 0., -2.26182807e-002, 5.12919873e-002,
          6.58696890e-002, -2.76111290e-002, -2.34106512e-004,
          -1.34978024e-003, -1.31384842e-002, -3.14534269e-003,
          9.02372692e-003, -3.35096964e-003, 2.02899537e-004,
          3.18910256e-002, 1.03262132e-002, 7.46546034e-003,
          -1.20697349e-001, 8.39038864e-002, 3.73046696e-002,
          1.57834161e-002, 0., 6.91397935e-002, -2.18329243e-002,
          1.95272383e-003, -1.76740898e-004, 0., 3.62361828e-003,
          1.41638843e-003, -1.95461651e-003, -5.79762505e-003,
          2.46890873e-001, 1.09368809e-001, -3.20882872e-002,
          -3.26731498e-003, -1.52992094e-002, 0., -3.12589528e-003,
          1.25596188e-002, -4.80060698e-003, -1.24490717e-002,
          -1.21350894e-002, -1.70490295e-002, 1.53830806e-002,
          -1.02664344e-002, 1.57752022e-001, 4.01324071e-002,
          -6.08960073e-003, 3.58821102e-003, -4.30226326e-004,
          2.24804953e-001, 0., -3.79889342e-003, 0., 4.91953967e-003,
          1.25394510e-002, 3.54823237e-003, -2.53485428e-004,
          -8.16967804e-003, 3.85272205e-002, 3.09081171e-002,
          -1.59177464e-002, -5.93673773e-002, 2.26674648e-003,
          6.11439086e-002, -1.82474274e-002, -9.05272141e-002,
          -2.09352560e-003, -2.53485428e-004, -1.49045261e-002,
          4.92811529e-003, 6.03912072e-003, 9.12918244e-003,
          5.38735418e-003, -1.55109959e-002, -6.83711725e-004,
          9.90005676e-003, -9.69918072e-003, 4.82855923e-003,
          -8.75206571e-003, 0., -4.88890931e-002, -1.19675472e-001,
          4.84537892e-002, 1.37783336e-002, -5.06631471e-003,
          1.81756578e-002, 9.77765843e-002, 6.49787262e-002,
          8.23164172e-003, 4.36991230e-002, 8.78031924e-003, 0.,
          7.13810697e-002, -9.54452604e-002, -4.33181226e-003,
          -8.72592349e-003, 3.96427559e-003, -6.73001911e-003,
          3.72860697e-004, 3.56392488e-002, 1.94766384e-003,
          1.15149887e-002, -2.63852254e-003, 3.23747052e-003,
          1.56739808e-003, 0., 6.29983656e-003, -8.42010078e-004, 0.,
          -2.13553105e-002, 3.70717491e-003, -8.87297690e-002,
          1.59708355e-002, 0., -1.82842137e-004, 6.07831124e-003,
          7.17830332e-003, 0., 4.34713252e-003, 6.15229793e-002,
          1.09638264e-002, 4.43649292e-003, 3.48622212e-003,
          -7.55606871e-003, -1.12552410e-002, 0., 1.38554145e-002,
          1.39259705e-002, -1.23022718e-003, -7.97143485e-003,
          -1.11186482e-001, -8.70250724e-003, -6.82389438e-002,
          -5.70007786e-002, 4.23695371e-002, 0., 1.16550119e-003,
          -2.03455761e-002, 5.57840103e-003, -2.60727834e-002,
          1.60547607e-002, 1.95272383e-003, 3.45146027e-003,
          5.18134702e-003, 3.38417361e-003, -1.04782376e-002,
          3.20648253e-002, -8.67917575e-003, 1.93752050e-002,
          1.33272231e-001, 1.55258563e-003, -7.83412345e-003,
          3.03549040e-002, 4.13530841e-002, -1.94671936e-002,
          -2.48649972e-003, 4.72678132e-002, 7.38041522e-003,
          -4.89206845e-003, 7.64929410e-003, 3.72860697e-004,
          -4.52872336e-001, 3.22769885e-003, 1.87739935e-002,
          -6.61501009e-003, -3.32520506e-003, 3.30396406e-002,
          -5.36589744e-003, 7.57177081e-003, -4.94615078e-001,
          5.21251075e-002, -4.55993460e-003, 1.56739808e-003,
          6.32951688e-003, 3.89113533e-003, 2.73671728e-002,
          3.96294817e-002, 0., 3.25406808e-003, 1.33509384e-002,
          -7.93422665e-003, -1.13842105e-002, 1.37000512e-002,
          -1.13117304e-002, 0., -3.37575516e-003, 1.23042241e-002, 0.,
          -2.69439956e-003, -4.75023463e-002, -2.04175804e-002,
          4.77743277e-004, -1.77992824e-002, 2.39606388e-002, 0.,
          5.49991392e-002, -6.39058230e-003, 1.06087644e-002,
          8.13354179e-003, -2.45144088e-002, 2.10117977e-002,
          -8.99397582e-002, -1.36103583e-002, -1.91142177e-003,
          3.00807916e-002, -8.50850809e-003, 7.09986035e-003,
          -1.76740898e-004, -3.14721139e-003, 1.09721664e-002,
          4.91213473e-003, 1.36315571e-002, 4.09615450e-002,
          1.01123436e-003, 0., 1.52602941e-002, 7.74970278e-003,
          -3.50069185e-003, 6.05483074e-003, -1.93930771e-002,
          -1.76740898e-004, 7.71040618e-002, 0., 2.31400765e-002,
          -5.02512557e-003, 0., 5.08877188e-002, 5.63238300e-002,
          -1.22472877e-003, 2.06877887e-002, -1.68793518e-002,
          -5.99656627e-003, 4.39460622e-003, -3.42675135e-003,
          2.50408356e-003, 0., -1.83839761e-002, 0., 4.18807380e-002,
          8.99983197e-003, -8.35399795e-003, 0., -1.07790600e-003,
          6.66765943e-002, -1.36307366e-002, -1.70103125e-002,
          -1.36741167e-002, -2.18761456e-003, -3.25490236e-002,
          -7.15086889e-003, -1.76718846e-001, -4.31046784e-002,
          -1.62580043e-001, -5.51897753e-003, 1.18438085e-003,
          -4.42672893e-002, 2.13760984e-004, 9.00745690e-002,
          -2.53485428e-004, 3.34980828e-003, 4.87059541e-002,
          1.70190319e-001, 0., 2.18818383e-003, 3.20393546e-003,
          -1.62592698e-002, 0., 8.99797585e-003, -5.94520941e-003, 0.,
          1.33168902e-002, 3.06918360e-002, 0., -1.23710595e-002,
          -1.79121226e-001, 2.71626562e-002, 2.61859708e-002,
          3.38983053e-004, 1.50090689e-002, 1.29315369e-002, 0.,
          2.38734297e-002, -7.34082907e-002, 5.01509011e-002,
          2.96782479e-002, 1.45192156e-002, -4.23001451e-003,
          3.50545079e-001, 6.48173969e-003, 0., -7.40849506e-003,
          2.51638554e-002, -9.19562113e-003, -1.26099829e-002,
          4.80505824e-002, -1.28195444e-002, 5.16327145e-003,
          -7.19312858e-003, 6.14310615e-003, 1.32118966e-002,
          3.02055525e-003, -2.08584871e-002, -3.21384519e-002,
          -1.08530417e-001, 5.53292036e-003, -2.97098998e-002,
          -3.48773673e-002, -4.30574827e-003, 8.08774680e-003,
          -1.26487494e-001, 4.35920618e-003, 7.39110447e-003,
          2.18660180e-002, -3.15204985e-003, 6.55308017e-004,
          -1.95238162e-002, -6.72649825e-003, -1.40266437e-002,
          -2.67876051e-002, -8.13633949e-003, 5.42199472e-003,
          -4.16738749e-001, 4.27558422e-002, -5.47266193e-003,
          -2.51940079e-002, -6.31297156e-002, 0., -4.64661192e-004,
          2.63313763e-003, 1.91051420e-002, -8.57634190e-003, 0.,
          4.68614837e-003, -3.26961163e-004, 0., 0., 9.40998830e-003, 0.,
          -1.79135483e-002, 2.70349234e-002, 7.72820860e-002,
          -2.77309143e-003, 8.54614482e-004, 0., 9.21509415e-003,
          2.14104597e-002, -2.67986283e-002, -6.87757914e-004,
          1.61047019e-002, 8.90795421e-003, -1.03023825e-002,
          1.42611098e-002, 1.20140221e-002, 0., -7.15233712e-003,
          -8.46546423e-003, 8.87591392e-003, 9.48427897e-003,
          -1.10024801e-002, -2.37521878e-003, 6.00099145e-003,
          -5.78227127e-003, -1.39221577e-002, 1.90658774e-002,
          6.85253292e-002, 4.00593132e-002, 3.20806690e-002,
          9.15586799e-002, 0., -1.11482723e-003, -5.03238291e-002, 0.,
          1.82299577e-002, 7.03564845e-003, 1.34829894e-001,
          -4.13297415e-002, 0., -2.19817716e-003, 0., 1.16194747e-001,
          -2.22965446e-003, -1.51515156e-002, 0., 0., 0.,
          -3.45865451e-002, 9.51986611e-002, 5.24137961e-003, 0.,
          1.11079188e-002, -4.07526921e-003, 0., 0., -2.19048083e-001,
          0., 1.53057440e-003, 0., 3.11863832e-002, -1.11482723e-003,
          -4.58104908e-002, -1.19383922e-002, -2.23716479e-002, 0.,
          2.13314444e-002, 9.10471007e-002, 0., -4.84477952e-002, 0.,
          3.99999991e-002, 3.44827585e-002, 0., -1.08695654e-002, 0.,
          -1.36254467e-002, 0., 6.62963791e-003, -3.88498120e-002, 0.,
          1.13601498e-002, 5.78025496e-003, 6.28930796e-003,
          8.42945948e-002, -6.83088750e-002, 1.18403118e-002,
          1.61290318e-002, -5.37903048e-004, 5.02454266e-002, 0.,
          3.57181877e-002, 1.37307674e-001, 0., 0., -1.83059704e-002,
          4.19013686e-002, -1.11482723e-003, 0., -1.12677077e-002,
          1.06599312e-002, 1.11674033e-002, 0., 0., -5.27241975e-002,
          -1.42289057e-001, 1.80031732e-001, -1.27081657e-002,
          -1.15520373e-001, 0., 4.75741252e-002, 7.35825254e-003,
          -7.88173899e-002, -1.28208240e-002, 0., 0., 4.40272279e-002,
          0., -4.08163248e-003, 0., 0., -2.44133752e-002,
          -4.41571549e-002, 5.60915982e-003, -1.03578921e-002, 0.,
          -4.82944277e-004, 0., 0., 2.91080922e-001, 7.12893233e-002,
          -9.61538497e-003, 0., 0., 0., 0., 0., -2.29413155e-003,
          1.71060115e-002, -5.18287979e-002, -1.11482723e-003,
          1.99777424e-001, 0., 2.69525964e-002, 0., -1.82185784e-001,
          1.69986661e-003, -3.22851390e-001, -1.77504539e-001, 0., 0.,
          -3.56673710e-002, 2.66394377e-001, 0., 1.30740613e-001, 0., 0.,
          -2.22965446e-003, 6.41367659e-002, 2.01402847e-002,
          -1.34709934e-002, 1.35920793e-002, -2.50610746e-002,
          4.35037948e-002, -3.65225449e-002, -5.73436264e-003,
          -2.08333340e-002, -7.44863600e-003, 0., 0., -1.36970170e-002,
          0., -2.22965446e-003, 8.53518769e-003, 0., -2.11590916e-001,
          0., -3.56250666e-002, -5.49410954e-002, 1.96414944e-002,
          -1.24393262e-001, 0., 1.84930172e-002, 0., 4.99999989e-003,
          -3.19275916e-001, 1.79497469e-002, -1.39198020e-001,
          9.58373994e-002, 1.77852005e-001, -1.08695654e-002,
          8.34175423e-002, -1.11606337e-001, -7.63698593e-002, 0., 0.,
          1.09640151e-001, 1.52268689e-002, 0., -1.14074685e-002, 0.,
          -3.41943000e-003, 0., 0., -2.91726422e-002, 2.67945342e-002,
          6.26899749e-002, 6.60329014e-002, -3.29907477e-001,
          -1.21951215e-002, 0., 0., -1.36393979e-002, 0.,
          -5.31694815e-002, 3.82431187e-002, -1.29352793e-001, 0., 0.,
          -2.11057469e-001, -5.98049998e-001, 1.46325985e-002,
          -1.14074685e-002, 0., -4.06819629e-003, 0., 4.35894169e-002,
          4.99999989e-003, -3.36700329e-003, 5.60477283e-003,
          9.10633244e-003, 0., 0., -2.52063852e-002, -6.16177619e-002,
          -5.07796109e-002, 3.49192649e-001, 0., -1.78624075e-002, 0.,
          -2.80187011e-001, -1.78062674e-002, 0., -1.89224090e-002,
          -7.56416330e-003, -3.78809310e-002, 3.88851725e-002, 0.,
          -2.22965446e-003, 0., -5.37903048e-004, 3.51487659e-002, 0.,
          0., 0., 2.86789715e-001, -2.05938471e-003, 2.34390367e-002,
          -2.01749429e-002, -5.48563839e-004, 1.61946833e-001,
          7.97366351e-002, 1.75768175e-004, 1.35541767e-001,
          -3.79781425e-003, 0., 0., 8.41536224e-002, 7.71840513e-002,
          4.72830944e-002, 1.31675582e-002, 7.85694923e-003, 0., 0.,
          6.36313781e-002, 0., -4.48183063e-003, 0., -1.11482723e-003,
          0., 0., -5.01973368e-003, -6.47171438e-002, 0.,
          -1.08536575e-002, -5.37903048e-004, 6.10291213e-002,
          -3.56541723e-002, 0., 0., 3.39448564e-002, 1.10133449e-002, 0.,
          -5.37903048e-004, -2.27545440e-001, -9.79398489e-002,
          1.66043825e-002, 0., 3.53618548e-003, 0., 0., 2.35633738e-002,
          6.28930796e-003, 0., -5.37903048e-004, 2.15637445e-001,
          4.11180779e-003, 6.23767897e-002, -2.32212678e-001,
          5.57873026e-002, 0., 0., -8.11366085e-003, 6.21887716e-003, 0.,
          -4.16125134e-002, 0., -1.68606803e-001, 0., 1.92975998e-002,
          1.52610838e-002, -3.79089918e-003, 3.30730528e-002,
          -8.33345950e-002, 4.12185676e-002, 0., 0., 5.62729454e-003,
          1.87066942e-002, -6.71410561e-003, 4.99999989e-003,
          1.90018509e-002, 1.10133449e-002, -1.31334253e-002,
          -1.67079419e-002, 1.20369690e-002, -1.09186530e-001,
          -2.18386799e-002, -1.26268089e-001, 1.84930172e-002,
          -1.11482723e-003, -9.09095258e-002, 3.34266275e-002,
          -1.51449563e-002, -5.02675831e-001, 8.39755777e-003,
          -2.21266467e-002, 0., -1.11482723e-003, 0., 6.47245906e-003,
          -7.50464648e-002, 0., 0., 4.99999989e-003, -1.11482723e-003,
          -5.21806665e-002, -4.03585881e-002, 0., 0., 3.33430134e-002,
          7.06929341e-002, 1.06599312e-002, -2.08333340e-002,
          -3.50245684e-002, -5.92978112e-002, 0., -5.46212085e-002,
          -1.83868080e-001, 0., 6.46400005e-002, 8.10009707e-003, 0.,
          -2.18386799e-002, 0., 1.34322628e-001, 2.16359526e-001,
          5.90499025e-003, 0., 4.32288013e-002, 1.82489050e-003,
          -2.76983273e-003, 0., 0., -1.11482723e-003, 0.,
          -1.11482723e-003, -4.69620712e-003, 5.10478355e-002, 0., 0.,
          -4.34782617e-002, 0., -2.29808986e-002, 4.48700078e-002, 0.,
          9.11695138e-002, 0., -8.97775888e-002, 6.28930796e-003, 0.,
          4.51135151e-002, 6.10909462e-002, 1.50142042e-002,
          6.23516738e-002, 1.38033360e-001, 0., -7.27190962e-003,
          4.06615064e-002, 0., 0., 8.12028050e-002, 0., -2.65152333e-003,
          -5.37903048e-004, -9.68651325e-002, 0., 0., 3.43002751e-002,
          -3.75371464e-002, 0., -1.44339055e-002, -7.55854370e-003,
          -9.31396037e-002, -3.36700329e-003, 9.30725783e-002,
          -7.42652491e-002, 3.22863042e-001, -1.02466410e-002, 0.,
          1.58845503e-002, -9.98472795e-003, 8.04685727e-002, 0.,
          1.44368857e-002, 4.68321927e-002, -6.93087429e-002, 0., 0., 0.,
          2.19379589e-002, 0., -8.58869925e-002, -5.37903048e-004, 0.,
          -7.46815801e-002, 2.57354677e-001, 0., 0., -1.60339996e-001,
          3.02366037e-002, -1.01703949e-001, -3.36700329e-003, 0.,
          3.01297791e-002, 0., -4.61827517e-002, 9.91912261e-002,
          1.54894888e-001, -3.08745001e-002, 0., -7.57575780e-003,
          -3.91490072e-001, -3.36700329e-003, 0., -1.23626381e-001,
          -8.44865863e-004, 0., 2.76022702e-002, 7.56149217e-002,
          -2.86967866e-002, 0., 5.76796904e-002, -6.44907448e-003,
          -9.04218107e-002, 0., -1.55554069e-002, -3.41588864e-003,
          -2.64602065e-001, 9.54510458e-003, 7.99150486e-003,
          5.42461514e-001, -5.98672330e-002, -1.11482723e-003,
          -8.64402056e-002, 3.20672765e-002, 0., 8.53518769e-003,
          -7.72887915e-002, 0., 0., 0., -1.11482723e-003,
          1.12284515e-002, 1.03393360e-003, 0., -2.04402000e-001,
          -3.92811634e-002, 7.43597606e-003, -1.11482723e-003,
          1.17292270e-001, 0., -1.84575114e-002, 0., 4.14373763e-002, 0.,
          0., 9.28157642e-002, 0., 0., 0., 1.10133449e-002, 0.,
          2.04192981e-001, 3.32139656e-002, 1.39627114e-001,
          9.18367412e-004, 0., 0., 0., -3.23710516e-002,
          -3.02580297e-001, -4.76190485e-002, 1.71016194e-002, 0., 0.,
          2.20761180e-001, 0., 0., -2.22965446e-003, -2.22965446e-003,
          3.56343016e-002, 7.06297457e-002, -6.95772320e-002, 0.,
          -8.09706673e-002, 0., 4.44931500e-002, 1.32882996e-002,
          -3.37096490e-002, 6.82870438e-003, 4.46612351e-002,
          3.44708830e-001, 0., 0., -2.11832812e-003, -1.70068024e-003,
          -8.76696408e-002, 8.22925009e-004, -3.26374546e-002, 0., 0.,
          2.34072171e-002, 0., -7.25224912e-002, -2.41832770e-002,
          -1.13759562e-002, 0., -1.25628139e-003, 0., 4.74717328e-003,
          -6.60032630e-002, -3.92433666e-002, -2.14975756e-002,
          -1.20379508e-001, 2.65264571e-001, 0., 0., -5.31728715e-002,
          0., -5.84822614e-003, 0., -6.37463629e-002, 6.82974933e-003,
          -1.59349453e-004, 0., -3.39752845e-002, -3.06923091e-002,
          -4.80510108e-003, -1.00110471e-002, 0., 5.74787473e-003, 0.,
          2.97619053e-003, -2.50493120e-002, 0., 1.27785886e-003,
          -9.99999978e-003, 2.36813668e-002, 2.97619053e-003,
          2.10189633e-002, 7.88014941e-003, 0., -1.25628139e-003,
          1.72045641e-002, 1.06291585e-002, -4.12844010e-002,
          1.51310666e-002, -6.78964425e-003, 0., 1.05883554e-002,
          3.03595350e-003, 1.92307699e-002, 1.49894143e-002,
          1.28226159e-002, 0., 0., -1.17073010e-003, 2.82343589e-002, 0.,
          1.13368416e-002, -7.42656291e-002, 1.98812783e-002,
          9.45379119e-003, 3.66027677e-003, 4.44709137e-003,
          1.99679043e-002, 1.05856948e-001, -6.66635484e-002,
          -3.02824378e-002, 1.31375557e-002, 0., 4.85919118e-002,
          2.97619053e-003, 4.01152521e-002, 5.40462025e-002, 0.,
          6.82974933e-003, -1.99933513e-003, 0., 6.37484342e-003,
          8.63386914e-002, -3.18418816e-002, 1.75784752e-002,
          -1.19265253e-002, -2.61836089e-002, -5.87653667e-002, 0.,
          -1.61425192e-002, -2.82000983e-003, 2.87584215e-002,
          4.47157681e-001, -1.97478309e-002, 9.72560258e-004, 0., 0.,
          6.82597933e-003, 3.99743021e-003, 0., 1.93922222e-002,
          -2.26283278e-002, -2.40058508e-002, 2.12314236e-003,
          -5.98845482e-001, 0., 5.02061956e-002, 2.97619053e-003,
          -1.91606387e-001, 1.30327772e-002, -2.17420068e-002,
          5.72940186e-002, -3.51306610e-002, 0., 2.42651533e-002,
          1.19937301e-001, 0., 9.11191702e-002, 0., 0., 1.05702961e-002,
          5.90299591e-002, -1.60949084e-003, -1.15714846e-002,
          -2.66071986e-002, 3.66184376e-002, 1.13188580e-003,
          -4.76632528e-002, -1.25628139e-003, -1.65733904e-001,
          2.31497362e-002, -2.14975756e-002, 1.56475343e-002,
          3.16859558e-002, 0., -5.22207692e-002, 1.68019980e-002, 0.,
          -4.34048116e-001, 0., 7.02163111e-003, -1.32070491e-002,
          2.92519238e-002, 1.48857102e-001, 0., 6.55515259e-003, 0.,
          -1.25628139e-003, -3.03266905e-002, 2.15551537e-002,
          3.10038105e-002, 9.92178079e-003, 8.28899443e-003,
          -1.49451960e-002, -2.17103306e-002, 3.72849330e-002,
          -8.04259256e-002, 3.74472118e-003, 1.05811553e-002,
          1.36572286e-001, -5.51473955e-003, 0., -4.31872765e-003, 0.,
          -7.78632686e-002, 4.98232022e-002, 0., -3.73187549e-002,
          -4.14386280e-002, 5.10747619e-002, 6.54772222e-002,
          -9.03447419e-002, 2.56554727e-002, 0., -2.56546363e-002,
          1.61763299e-002, -4.30943593e-002, 4.56460826e-002,
          2.90741269e-002, -5.97014930e-003, -1.70068024e-003,
          -2.82000983e-003, 1.19558439e-001, -8.80485699e-002,
          -5.46485651e-003, 8.24274216e-003, -5.52486209e-003,
          3.13400142e-002, 0., 7.65365213e-002, -2.82000983e-003,
          5.97175583e-003, 5.44211548e-003, 0., 0., -5.26315812e-003,
          2.22454555e-002, 2.26880182e-002, 8.37663338e-002,
          5.44937067e-002, 0., 7.94955820e-004, -7.54686538e-003,
          -2.71921605e-001, -2.79377159e-002, 0., -5.95238106e-003,
          7.10826321e-003, -2.13192012e-002, -4.01622206e-002,
          -7.20396522e-004, -6.24525873e-003, -1.25628139e-003,
          4.98022847e-002, -6.64862746e-004, 0., 0., 2.11623106e-002,
          -2.34701991e-001, -3.75095814e-001, -2.92746909e-002,
          -7.16788173e-002, 6.22007847e-002, -8.50158930e-002,
          7.15426579e-002, 2.44471766e-002, 5.48487669e-003,
          7.80542661e-003, 6.68134587e-003, 0., 4.41782661e-002,
          -2.46186659e-001, 2.15497520e-002, -3.02141234e-002,
          4.25716601e-002, 1.05263162e-002, 0., -5.45877374e-005, 0.,
          8.73809308e-003, -5.26315812e-003, 3.54565470e-003,
          -1.25628139e-003, 0., -8.80623795e-003, 1.28751853e-002, 0.,
          3.46750803e-002, 1.44564211e-002, 2.17733577e-001,
          4.65610297e-003, 5.32132061e-003, 0., -2.51256279e-003,
          -2.90484913e-002, 0., 0., -2.52680983e-002, 1.50126358e-002,
          5.31660812e-003, 0., 7.08393892e-003, 0., -7.20396522e-004,
          -2.98507465e-003, -5.95238106e-003, 0., 4.23333198e-002,
          1.33418724e-001, 8.31266046e-002, 1.78076494e-002,
          3.28579731e-002, 2.04758458e-002, 1.52978059e-002,
          5.64971752e-003, -8.11880827e-002, 1.27711333e-002,
          -1.70068024e-003, 1.30680380e-002, 6.80272095e-003,
          1.36020765e-001, 0., 3.70584726e-002, -2.82000983e-003,
          7.64556229e-002, -2.84425784e-002, -4.74307500e-003,
          -5.87848186e-001, 1.21596837e-002, 0., 9.54411831e-003,
          -7.02181691e-003, -2.98637734e-003, 1.27749359e-002,
          7.36741796e-002, -3.22317742e-002, 3.47222225e-003,
          -4.71430905e-002, -3.36711440e-004, -2.28412114e-002,
          1.04335202e-002, -4.48162146e-002, 3.83037440e-002,
          -3.49263288e-002, -1.88080762e-002, -1.31812617e-002, 0.,
          3.88802588e-001, -8.74356106e-002, 2.46951208e-002, 0.,
          -1.07741158e-003, -4.58939075e-002, 1.57444850e-002,
          6.65456476e-003, -1.26582282e-002, 6.80272095e-003,
          2.28200294e-002, 1.19232843e-002, -1.56250000e-002,
          4.56440262e-002, -1.03367111e-002, 0., 1.52649998e-003,
          -2.61059441e-002, 0., -4.68575489e-003, -9.22162607e-002,
          -1.26582282e-002, -1.09890113e-002, -1.80461854e-001,
          -4.15512659e-002, 0., -2.67372523e-002, -8.74557439e-003,
          -7.65306130e-003, 0., 0., -1.19685076e-001, -1.19591169e-001,
          -1.72837861e-002, 0., 1.10075297e-002, 7.08875209e-002, 0.,
          1.38966152e-002, -1.39282467e-002, 0., 0., -3.00847366e-003,
          -2.79976968e-002, 1.25725865e-002, 0., 5.64971752e-003,
          5.64971752e-003, 0., 5.29167727e-002, -1.19708637e-002,
          6.49604062e-003, -1.93235025e-001, 0., 2.45519131e-002,
          1.92307699e-002, 0., 7.16362372e-002, -9.26622655e-003,
          5.04951784e-003, -4.10626680e-002, -5.21518365e-002, 0.,
          3.47734578e-002, -4.39767400e-003, -4.34749061e-004, 0.,
          2.49217786e-002, 0., 5.40440716e-002, -6.90265279e-003,
          -8.22351277e-002, 0., 0., 1.14108317e-001, -3.61786373e-002,
          -8.37989617e-003, 1.93420164e-002, -5.26315812e-003,
          1.22356482e-001, 1.97421983e-002, -4.28888425e-002,
          -9.36072320e-002, 1.78622693e-001, 6.31693192e-003,
          2.12314236e-003, 1.05811553e-002, -9.39338282e-003,
          -3.14839669e-002, 0., -5.52874170e-002, 9.24239773e-003,
          8.31281021e-002, 0., -3.77459521e-003, -5.26315812e-003,
          8.71598721e-003, 2.66066031e-003, -4.17214595e-002, 0., 0.,
          1.83609035e-003, -1.94036700e-002, 0., -1.25628139e-003,
          -1.85700804e-001, 1.04837213e-002, 2.55438918e-003,
          8.19672085e-003, 6.23268599e-004, 0., 0., 2.65310742e-002,
          1.70290202e-001, 1.81266181e-002, 1.08597316e-002, 0.,
          -1.25628139e-003, 3.62983465e-001, -2.82000983e-003, 0.,
          1.54923387e-002, 2.04454809e-002, 1.56732444e-002,
          -1.91667285e-002, -6.52565993e-003, -1.34759750e-002,
          6.99300691e-003, -4.20093816e-003, 0., 1.45783210e-002,
          1.27852438e-002, -3.99086177e-002, -1.10185836e-002,
          -1.93641707e-001, -3.36711440e-004, 5.85615709e-002,
          9.92001966e-002, -9.85524990e-003, -1.95810571e-002,
          -9.88478139e-002, -8.11243244e-003, 2.12314236e-003,
          -3.47087309e-002, -1.83198079e-001, 0., -2.08469480e-003, 0.,
          1.54396305e-002, -1.49382195e-002, -3.36711440e-004,
          2.82498002e-002, 9.49468091e-002, -7.12502524e-002,
          -1.42510962e-002, 6.34904299e-003, 2.40613557e-002, 0.,
          1.31831560e-002, 1.60695650e-002, 1.63737107e-002,
          2.45646499e-002, 0., 2.80283857e-002, 0., 0., 0.,
          2.07349788e-002, 0., 8.14124942e-002, 9.76636540e-003,
          3.35139781e-002, -2.08333321e-002, 2.35958286e-002, 0.,
          -3.72891314e-002, 1.52255325e-002, -1.25895059e-002, 0.,
          -5.49473986e-002, 0., 9.09681432e-004, 2.63543781e-002,
          9.24165621e-002, 0., 1.08339908e-002, 6.65629562e-003,
          5.58993360e-003, 1.70823097e-001, 9.27003473e-003,
          -4.57912572e-002, 4.04016301e-002, 6.28897501e-003,
          4.70246337e-002, -9.98381227e-002, -1.22675553e-001,
          -4.81711440e-002, 8.21630005e-003, -2.18966473e-002, 0., 0.,
          1.40644563e-002, -1.35680065e-002, -3.70962434e-002, 0.,
          2.46818528e-001, 0., 0., -2.50372458e-002, 0., 5.07979244e-002,
          -2.71730078e-003, 1.67092811e-002, 0., 0., 1.89611269e-003,
          4.44433419e-003, 2.77895421e-001, 1.33215729e-002,
          -6.43323548e-003, 6.69762632e-003, 1.18342668e-001, 0., 0.,
          -5.35494685e-001, 0., -4.37325379e-003, 0., -1.47241121e-003,
          1.71080101e-002, 0., -4.90196096e-003, -1.82675153e-001,
          1.65276788e-002, 5.44314925e-003, 1.04979500e-001, 0.,
          8.69958103e-002, -7.24637695e-003, 0., 0., 0., 2.56410260e-002,
          0., 2.98998002e-002, 0., 6.10633008e-002, -8.08433890e-002, 0.,
          0., -2.95130187e-003, 9.76361893e-003, 8.28058794e-002,
          -1.50603419e-002, -1.91502012e-002, 0., 1.61143430e-002,
          -1.01060487e-001, 0., 2.89429352e-003, 1.11330815e-001, 0., 0.,
          -3.57170701e-002, -1.58415604e-002, 2.07402203e-002,
          -4.85536270e-002, -2.11631935e-002, -3.31481965e-003,
          1.81793757e-002, 0., 2.13675224e-003, -7.51100630e-002,
          -1.36472911e-001, -1.26524597e-001, 3.49376048e-003,
          -3.41754727e-004, 0., -1.55816451e-002, 1.24928430e-002,
          -6.04250655e-003, 7.42675876e-003, 0., -4.32900432e-003,
          -3.27383314e-004, -2.88062566e-003, 3.28196306e-003,
          -2.48388387e-003, 0., 2.27719527e-002, -9.08189192e-002,
          4.13180627e-002, 9.59132388e-002, 0., 2.26586591e-002, 0.,
          6.28930796e-003, 4.44147497e-001, -2.00330541e-002,
          3.17657143e-002, 0., 0., -7.94454012e-003, 0., 0.,
          -5.52647654e-003, -1.51361123e-001, 5.88797256e-002,
          -1.87793672e-002, 1.13529205e-001, 0., 3.69456038e-002,
          -4.32900432e-003, 1.65434182e-002, 1.33900177e-002,
          6.70151114e-002, -2.78266482e-002, 1.26483850e-002, 0.,
          3.67979594e-002, -1.16485447e-001, 0., 3.73789489e-001, 0., 0.,
          1.22152353e-002, 2.49475837e-002, -6.18773475e-002,
          6.89147413e-003, 1.51136168e-003, 9.06720981e-002,
          8.67613256e-002, -1.85252808e-003, -2.52044667e-002,
          -1.24480138e-002, -8.76497850e-003, 1.40961688e-002,
          -3.53249498e-002, 8.20697285e-003, -1.43061520e-003,
          -7.13282749e-002, -8.91841352e-002, 0., 1.62726313e-001, 0.,
          -1.84901245e-002, -2.31256932e-002, -7.56973550e-002,
          7.01324642e-002, 0., 1.17653972e-002, -8.85908678e-003, 0.,
          -2.83323843e-002, -6.63918480e-002, 1.12982698e-001,
          -1.20030761e-001, 1.24943689e-001, 6.93587493e-003,
          1.76972985e-001, -4.81222644e-002, 6.52244240e-002, 0., 0.,
          -1.46775916e-001, 2.60789003e-002, 0., 3.14718075e-002, 0.,
          2.67309956e-002, -3.85980234e-002, 0., -2.93435920e-002,
          -1.99728012e-002, -1.00337826e-001, -4.76117991e-003,
          -3.91728878e-002, 1.73748878e-003, 0., -1.00716595e-002,
          -9.33239888e-003, -2.09279507e-001, 2.64183618e-002,
          3.68566737e-002, -1.29137680e-001, 1.82815362e-003,
          -6.45161280e-003, 2.29640752e-001, 1.67496517e-001,
          1.15938857e-002, -1.43061520e-003, 0., 1.13654993e-002, 0.,
          -1.75770801e-002, 0., 0., -1.76237077e-002, 0., 0.,
          6.59452891e-003, 7.79681131e-002, -7.40412949e-003,
          3.10864914e-002, 7.87596628e-002, 0., 1.25688851e-001,
          1.50445709e-003, 1.13151684e-001, -8.90099928e-002, 0.,
          4.06452268e-003, 8.44890159e-003, 1.07095666e-001,
          6.72279112e-003, 0., 0., 0., -1.85989097e-001, 3.03582530e-002,
          2.75955647e-002, 0., 1.94627512e-002, 5.55059552e-001,
          -1.33096278e-001, -1.23084672e-001, -4.54500616e-002,
          1.23705128e-002, 7.13682175e-002, -7.72120878e-002,
          -2.65606176e-002, 9.07126144e-002, -1.21797016e-002,
          -1.49538433e-002, 0., -2.24919263e-002, 1.18776616e-002,
          1.06175775e-002, -8.67257565e-002, -1.61230017e-003,
          3.00791897e-002, 1.50445709e-003, 1.20804027e-001, 0.,
          2.07949933e-002, -2.06454303e-002, 0., 0., 0., 2.35345494e-003,
          1.85849909e-002, 0., -5.32378908e-004, -3.32451076e-003,
          -3.60656053e-001, -4.09317240e-002, 0., 0., -3.42635438e-002,
          1.37688452e-002, 0., -1.81818176e-002, 3.72659154e-002,
          6.20141486e-003, 3.72024439e-003, 3.33333351e-002,
          1.50445709e-003, -3.93178733e-003, 0., -8.43684282e-003,
          -7.12359697e-003, 0., 1.32121553e-004, -1.20510444e-001,
          6.86221346e-002, -4.29415656e-003, 1.92753375e-002,
          1.04418453e-002, -1.05263162e-002, -1.43061520e-003,
          -1.32977486e-001, 0., 6.82878867e-003, -2.48298720e-001, 0.,
          3.78287807e-002, -4.90196096e-003, -5.59510384e-003, 0.,
          -2.01985240e-002, 8.44890159e-003, 6.72279112e-003,
          1.37921765e-001, 0., 1.74385356e-003, 1.44994929e-001,
          3.89447771e-002, 2.15380779e-003, 0., 2.02170201e-003,
          5.44314925e-003, -8.08606856e-003, -4.52771001e-002, 0.,
          1.05686240e-001, -1.89195089e-002, 1.75710350e-001,
          -7.91931525e-002, 1.28523167e-002, 7.18162954e-002,
          1.49652595e-002, 1.18035090e-003, -2.80366749e-001,
          3.26283202e-002, 1.79841218e-003, 0., -2.14690771e-002,
          1.00355493e-002, -4.59544137e-002, -2.78439336e-002,
          6.28930796e-003, 4.13147360e-003, 2.92904880e-002,
          2.10033096e-002, 2.35808864e-002, 3.60168167e-003,
          -5.74191986e-003, 0., 4.99020070e-002, 9.38680470e-002, 0., 0.,
          3.46275442e-003, 2.04809718e-002, 2.08333340e-002,
          9.06313732e-002, 2.38293945e-003, 0., 1.43261135e-001,
          4.11778269e-003, 1.96010824e-002, 1.42829325e-002,
          -6.71983988e-004, -2.75632422e-002, 1.83110349e-002,
          -7.69230798e-002, 0., 4.29274850e-002, 3.21448632e-002, 0., 0.,
          -1.19047621e-002, -9.55765322e-003, 1.38909062e-002,
          -8.60733762e-002, 1.93511546e-002, 1.33856926e-002, 0.,
          7.01544806e-003, 0., 0., 1.71047228e-003, -2.77934540e-002,
          -2.06454303e-002, -2.33406916e-001, 0., 6.57763332e-002,
          -1.43061520e-003, 0., 2.64061928e-001, -2.12053768e-002,
          -8.04837700e-003, -2.51003206e-002, 1.09976225e-001, 0.,
          1.99818946e-002, 1.29525229e-001, 3.41885239e-002, 0.,
          -4.64628302e-002, 0., 3.42282690e-002, 3.52721773e-002,
          1.29788786e-001, 0., 0., 1.01435336e-003, 1.62310414e-002, 0.,
          -9.50424466e-003, 5.44314925e-003, -4.01275270e-002,
          -5.69027709e-003, -4.91295785e-001, -3.94308493e-002,
          -2.30823201e-003, -4.54545440e-003, 0., 1.60004236e-002,
          -1.07107341e-001, -9.88773778e-002, -4.32900432e-003,
          2.19289530e-002, -1.32992670e-001, 8.64479318e-002,
          -2.08333340e-002, 0., -4.54545440e-003, 2.92361015e-003, 0.,
          3.76803540e-002, 0., 0., 5.19821271e-002, 8.23237970e-002, 0.,
          2.61096610e-003, -1.32369429e-001, 1.64265279e-002,
          1.25850132e-002, 0., 0., 2.89558060e-002, 0., -9.37033892e-002,
          -1.26844689e-001, -6.56968057e-002, 1.09896809e-001, 0., 0.,
          1.13810755e-001, -8.51440127e-004, 0., 2.69516222e-002,
          1.94661785e-003, -1.25155514e-002, 3.45523306e-003,
          2.66836315e-001, -9.30728298e-003, 0., -7.90778995e-002, 0.,
          1.17588034e-002, 0., 2.96024866e-002, 4.00880016e-002,
          -1.13605494e-002, 0., 2.77815927e-002, -2.69216690e-002,
          -8.40355381e-002, 1.90812722e-002, 4.02917415e-002,
          -3.86829898e-002, 0., 1.20828990e-002, 2.39182953e-002, 0.,
          1.93491653e-002, 2.39330847e-002, 0., 4.56032492e-002,
          -1.22863259e-002, 1.20481923e-002, 2.47331634e-001,
          4.41012867e-002, 1.49632362e-003, 0., 4.43034992e-002, 0.,
          -2.55063027e-002, 0., 1.13587961e-001, -3.81718464e-002, 0.,
          8.13892186e-002, 1.50445709e-003, 0., 0., 3.72024439e-003, 0.,
          -1.90388963e-001, 1.89268682e-002, 1.22610204e-001,
          -1.57074966e-002, 2.38095243e-002, 0., -2.34341323e-002,
          6.39974698e-002, 4.48742397e-002, -5.79710118e-004,
          2.36724224e-003, 0., -4.32900432e-003, 1.11200884e-001,
          1.17795933e-002, 1.50445709e-003, 2.92361015e-003,
          -4.90196096e-003, 2.51647681e-002, -5.57440072e-002, 0., 0.,
          2.84668133e-002, -5.20833349e-003, -6.61940575e-002,
          -4.06571552e-002, -3.76617052e-002, 5.71468100e-002,
          3.78652625e-002, 3.15739848e-002, 0., 0., 5.64900925e-003,
          -1.09649124e-003, -1.40409008e-001, 1.23425666e-002,
          -1.55308265e-002, 2.01513153e-002, 0., 0., 0., 1.36357518e-002,
          1.30225539e-001, -4.73952154e-004, 0., 0., 0.,
          -1.16279069e-002, 1.75850689e-001, 1.27420351e-002,
          -1.51451025e-002, -8.35103765e-002, 8.43239501e-002, 0., 0.,
          -1.07531369e-001, 0., -2.86603849e-002, 0., -2.38095243e-002,
          1.08225085e-003, -1.09649124e-003, -1.72723476e-002,
          2.37389393e-002, 1.46362756e-003, 8.73156115e-002,
          1.82881519e-001, 0., -9.18068290e-002, 0., 0.,
          -4.77946014e-004, 0., 0., 0., -5.99271134e-002, 0., 0.,
          5.28056957e-002, 0., 0., -1.35135138e-002, 2.62001846e-002,
          2.04093248e-001, -7.30738193e-002, 0., 0., -1.58894490e-002,
          5.97902313e-002, 0., 7.14285746e-002, 3.97646613e-002,
          1.28205130e-002, 0., -1.35135138e-002, 3.62902554e-003,
          1.73611112e-003, -1.59539804e-002, -1.37286320e-001, 0.,
          4.33298834e-002, 0., -4.77946014e-004, 2.29203813e-002,
          8.64453986e-002, 2.55484283e-001, -2.32969280e-002,
          2.01513153e-002, 6.17240220e-002, -4.20342945e-002,
          2.14798432e-002, 1.82375889e-002, -1.37538001e-001, 0.,
          1.28205130e-002, -1.09732710e-001, 0., -7.93650839e-003,
          7.81771913e-003, 0., -2.63242964e-002, -9.32369381e-002,
          -1.85509287e-002, -1.11462288e-002, 0., -2.10596442e-001, 0.,
          -1.77617315e-002, 1.70003384e-001, 1.73967518e-002,
          1.03164716e-002, 0., 0., -1.99040994e-002, -1.08052287e-002,
          0., -8.34304933e-003, 2.74247807e-002, 9.43610072e-002, 0.,
          6.23233579e-002, 0., 0., 0., -3.02986205e-002,
          -1.09649124e-003, 5.34052670e-001, -7.17799515e-002,
          -1.31157609e-002, 0., -3.68918814e-002, 2.57679820e-002, 0.,
          5.39300069e-002, 0., 0., 1.05263162e-002, -6.02903739e-002,
          -1.47128776e-001, -1.18049726e-001, 3.52151133e-003,
          1.98671762e-002, 2.42117241e-001, 2.57610139e-002,
          -2.05035526e-002, -1.44433603e-002, 1.50870448e-002, 0.,
          -3.81733011e-003, -1.86745990e-002, 1.21849007e-003,
          -3.78446132e-002, 0., 0., 3.27873170e-001, 0., 3.09772473e-002,
          -1.83320313e-003, -9.22941342e-002, 1.05223298e-001, 0.,
          2.70270277e-002, 0., 0., 1.79242287e-002, -6.36440329e-003,
          -2.71380097e-002, 9.85899270e-002, 4.40711202e-003,
          2.34792940e-003, -1.16568446e-001, -1.85385570e-002,
          -1.23201655e-002, -1.57443725e-003, 1.92307699e-002,
          1.36165768e-002, 1.53329829e-002, 0., 0., 0., -1.09649124e-003,
          0., 0., 0., 1.33242562e-001, -6.98112138e-003, 6.72620302e-003,
          -1.66956902e-001, -1.63934417e-002, 0., 0., 0.,
          1.52829324e-003, -1.63934417e-002, 2.48604808e-002,
          -5.58395684e-002, 0., 0., 1.71693057e-001, 1.30556867e-001,
          4.37745824e-002, 0., 0., 1.63549390e-002, 0., 3.69327776e-002,
          -1.54115036e-002, 1.28205130e-002, -2.11011153e-002, 0., 0.,
          6.02834905e-003, 7.63952062e-002, 9.79765058e-002,
          6.20861687e-002, 2.06061855e-001, 0., 1.38993576e-001,
          -2.44940221e-002, -1.57246868e-005, -1.61282122e-002,
          -2.85714287e-002, 1.73611112e-003, 3.57142873e-002,
          2.94367999e-001, -4.86122258e-003, 0., 0., 0., 2.48775352e-002,
          2.20858026e-002, -5.39832376e-002, 0., 0., 2.09940955e-001,
          5.82706183e-002, 4.73094247e-002, 4.14574984e-003,
          -9.40652192e-002, 1.19169064e-001, 1.93802387e-001,
          1.41376872e-002, 5.58704883e-002, 8.94937739e-002, 0.,
          -1.51451025e-002, 6.99523697e-003, -4.70653504e-001,
          -2.73539834e-002, 1.02254068e-002, -2.97347736e-002, 0., 0.,
          5.30667119e-002, 0., -1.57081783e-002, 0., 0., 0., 0.,
          -2.19298247e-003, 0., 0., 1.63339842e-002, 2.87631396e-002,
          1.98388502e-001, -1.15423109e-002, 0., 0., -3.18200290e-002,
          2.57630255e-002, 0., 2.30069850e-002, 2.81099416e-002,
          3.32915187e-002, 0., 0., 3.57142873e-002, 0., 0.,
          6.39619888e-004, 3.52831036e-002, 2.01513153e-002,
          -2.06092149e-002, 1.45978719e-001, -5.03851771e-002,
          -1.07474096e-001, 3.73278826e-001, -6.12584241e-002, 0., 0.,
          2.27799453e-002, 0., 1.87745802e-002, -9.78320930e-003, 0.,
          -6.19618632e-002, 0., -2.02772561e-002, 3.49694639e-002,
          -5.38874008e-002, -1.92307699e-002, 6.39619888e-004,
          -2.15955123e-001, 0., 0., -1.09058106e-003, -5.67470081e-002,
          2.22960915e-002, 0., -6.43229112e-003, 0., -1.09649124e-003,
          3.10098915e-003, 0., -5.55392325e-001, 0., 1.62012830e-001,
          -1.28142070e-003, 1.29870130e-002, -8.61547664e-002,
          4.96910736e-002, 0., -2.51161233e-002, -2.42067948e-002,
          -1.92307699e-002, 0., -8.77192989e-003, 0., 6.44438621e-003,
          6.16468228e-002, 0., -1.11227579e-001, -3.81733011e-003,
          3.57142873e-002, -2.81824376e-002, -1.72837861e-002, 0., 0.,
          0., 3.13482024e-002, 0., -2.39170324e-002, -1.18902177e-002,
          -5.00000000e-001, -9.19968113e-002, 4.71506156e-002,
          -9.81130917e-003, 0., -7.39639476e-002, -1.19017204e-002,
          1.05263162e-002, 1.15655335e-002, 0., -9.06674862e-002,
          3.37101191e-001, -2.77777780e-002, 0., -5.17535508e-002,
          4.25586151e-003, 1.92307699e-002, -2.85714287e-002,
          1.15655335e-002, -1.21030537e-003, 0., 9.86672658e-003,
          1.32751884e-002, 9.29097272e-003, 0., 0., 0., 0.,
          2.38250848e-002, -2.94004865e-002, 0., 3.88962358e-001, 0.,
          9.57473740e-002, 0., 0., 1.38250887e-001, 1.17377549e-001, 0.,
          -6.17612824e-002, -9.62933898e-003, 0., 2.02056337e-002,
          -7.47522339e-003, 0., 0., 9.25014447e-003, 0.,
          -1.23470671e-001, 3.47222225e-003, -3.57313635e-004, 0., 0.,
          -3.27412300e-002, 6.19750377e-003, 0., -4.16666679e-002,
          -9.70873795e-003, -6.67038783e-002, -3.81733011e-003,
          9.55904555e-003, 1.76515654e-002, -3.94502759e-001,
          5.65089993e-002, 0., 6.10585324e-002, 1.93137378e-002,
          -2.84280986e-001, 0., 1.53024374e-002, 7.82140419e-002,
          1.12364322e-001, 0., 0., -3.33333351e-002, 0., 0.,
          4.20818180e-002, 0., 0., -2.81824376e-002, 4.58958149e-002, 0.,
          0., -1.67880431e-002, 1.15084060e-001, -1.12839341e-001, 0.,
          -3.81733011e-003, 7.40543997e-004, 0., 5.61268032e-002,
          -1.26282558e-001, 3.94907966e-002, 3.57932337e-002, 0., 0.,
          3.64844918e-001, 0., 0., 2.21101916e-003, 9.15750861e-004,
          -2.14075018e-003, -7.40667991e-003, 2.84279227e-001,
          1.38618246e-001, 0., 2.01513153e-002, 0., 5.02252392e-002, 0.,
          1.50664657e-001, -3.31620872e-002, 2.18423516e-001,
          3.57142873e-002, 3.45036462e-002, -1.39586136e-001,
          -8.99250284e-002, -1.52673870e-001, -2.00010166e-001, 0., 0.,
          2.65490822e-002, -3.83465774e-002, 0., 0., 0., 5.00000007e-002,
          1.26239387e-002, -5.80298062e-003, 0., -1.69947520e-001,
          -3.76321375e-002, -1.19017204e-002, 1.76780894e-002,
          1.51763409e-001, 0., -2.15783015e-001, 1.73611112e-003,
          -4.29527601e-003, 0., 0., 1.42526915e-002, 0., 0.,
          2.95936707e-002, -4.77946014e-004, 0., -1.42111957e-001,
          -3.07828281e-003, -3.14816236e-001, 2.40963860e-003,
          -5.00000000e-001, 0., 7.82269426e-003, 7.56057501e-002,
          -2.02107709e-002, 0., 3.33307274e-002, 0., 1.73611112e-003,
          -1.09847831e-002, 0., 0., 0., 1.56453885e-002, 0.,
          -2.61455476e-001, -3.81733011e-003, 0., -5.21812737e-002, 0.,
          -2.89711114e-002, -3.87502946e-002, 5.52502461e-002,
          1.37128726e-001, 3.71803939e-002, -1.90613076e-001, 0.,
          -5.43478271e-003, 2.31236424e-002, -1.80740503e-003,
          -1.93574689e-002, 2.92877760e-002, 6.77741915e-002, 0., 0., 0.,
          0., 9.54274759e-002, -1.53846154e-002, 1.31986933e-002, 0., 0.,
          9.72454902e-003, 2.07449775e-002, 1.61297724e-001,
          5.66246696e-002, -2.04676408e-002, -7.07408786e-002,
          3.64393443e-002, 0., 0., 5.74758984e-002, 0., -1.07296137e-003,
          0., 1.04856249e-002, -4.01606411e-003, -3.84615399e-002, 0.,
          -1.30549343e-002, -2.23298129e-002, 2.07380019e-003,
          3.41570914e-001, 0., 3.90337482e-002, 1.63934417e-002, 0.,
          -1.07296137e-003, 0., 2.16272473e-002, 0., 1.83433257e-002,
          -5.31617028e-004, -2.09722370e-002, 6.49954826e-002, 0.,
          -1.07296137e-003, -5.36953285e-002, -6.62251655e-003,
          -1.26779407e-001, 5.58903478e-002, 4.38596494e-003,
          -6.62251655e-003, 2.91476585e-002, -5.51369637e-002, 0.,
          9.52380970e-002, 2.74689913e-001, 0., 0., -1.49618499e-002,
          2.85046324e-002, 0., 6.84931502e-003, 1.36923837e-002,
          4.38596494e-003, -1.91912428e-003, 0., -6.01689480e-002,
          -9.03382078e-002, 1.15120046e-001, -2.85261065e-001,
          -1.79085135e-002, -1.22431591e-002, -1.49253728e-002,
          6.08197823e-002, -6.07931928e-004, 0., 1.25313988e-002, 0.,
          4.51822998e-003, -2.04231054e-001, 0., 3.05965077e-002,
          1.17656738e-002, 0., -6.17179163e-002, -1.23749245e-002,
          -1.96078438e-002, -2.08056923e-002, 0., 9.18103755e-003, 0.,
          9.47867334e-003, -8.34117532e-002, -6.58799633e-002,
          1.15922326e-002, 0., 0., 0., 0., 0., 2.16543116e-002,
          1.63136512e-001, -3.02713402e-002, -6.62251655e-003,
          -4.03208762e-001, 0., -3.97257507e-003, 0., 1.05469115e-002,
          -1.35111976e-002, 2.72243649e-001, -4.61925030e-001,
          -1.49253728e-002, -6.62251655e-003, -2.71888170e-002,
          -1.21011779e-001, 0., -2.71854084e-002, -1.07296137e-003, 0.,
          6.37498451e-003, -1.07110411e-001, 1.03252493e-001,
          -4.68180738e-002, 1.71167143e-002, 3.95788513e-002,
          -6.79143844e-003, 1.12771485e-002, 3.31485673e-004, 0., 0.,
          -2.65808497e-003, 1.86869758e-003, 1.19819436e-002, 0.,
          -1.07526882e-002, -1.07526882e-002, 0., 4.01736386e-002, 0.,
          -1.23918215e-002, 1.02074668e-002, -6.97541237e-002,
          -6.89193532e-002, 2.92397663e-003, 0., 0., -9.02370177e-003,
          9.65123922e-002, -2.65232995e-002, -6.91178590e-002,
          1.59505755e-002, -2.23487802e-002, 1.65966339e-002,
          3.45354408e-001, -1.47906035e-001, -2.31696554e-002,
          -6.89655170e-003, 0., 5.09306416e-002, 1.86573006e-002, 0.,
          6.84931502e-003, 0., -7.96951354e-003, -8.43858998e-003,
          -2.15406027e-002, -1.07296137e-003, 7.10285485e-001,
          -4.71630871e-001, -2.39615552e-002, -8.32949858e-003,
          -4.95414343e-003, 0., -1.73493028e-002, -1.53846154e-002,
          -1.63035542e-001, 1.94712337e-002, -1.44609688e-002,
          2.09771823e-002, -1.87685732e-002, 9.72454902e-003,
          9.85512361e-002, 1.17895445e-002, -5.43478271e-003, 0., 0.,
          9.22694206e-002, 0., 4.31818143e-002, 0., -1.63934417e-002,
          -1.11952992e-002, 0., 0., 6.80272095e-003, 1.28701776e-001,
          -9.00397971e-002, 9.28836837e-002, -4.19662714e-001, 0.,
          -1.51773602e-001, -1.40206341e-003, 1.10189676e-001,
          3.43817733e-002, 0., 7.78053887e-004, 9.54032503e-003,
          4.14260710e-003, -1.07296137e-003, 0., 1.07661309e-002,
          -4.01606411e-003, -4.72366810e-005, 7.04517886e-002,
          -5.43478271e-003, 0., 9.68599971e-003, -1.22397117e-001,
          -2.61017263e-001, 2.33582363e-001, 1.25324801e-002,
          -5.90892555e-003, -1.95154220e-001, 1.15391791e-001,
          -7.35260174e-002, -7.85328075e-002, 6.73684385e-003, 0., 0.,
          -1.98650677e-002, 1.59920037e-001, -1.12589970e-002,
          -9.70759690e-002, -3.71147953e-002, -1.60457834e-003, 0.,
          1.38587216e-002, 0., 0., 0., 0., 0., 0., -2.51352955e-002,
          2.39011589e-002, 0., 0., 0., 8.02856907e-002, -7.42816878e-003,
          0., 0., 9.28690471e-003, -3.87721928e-003, 1.92328710e-002,
          -1.07296137e-003, 2.66345829e-001, -2.02226471e-002, 0., 0.,
          0., -6.66666683e-003, 0., -6.80480618e-003, 0., 0.,
          4.38596494e-003, 1.25327170e-001, 2.46567681e-001,
          2.42593065e-002, 1.41600132e-001, -3.38974036e-002,
          2.41556223e-002, 0., -2.74335947e-002, 0., 0., 4.70970175e-004,
          0., 9.81901772e-003, 0., -3.24585699e-002, -6.95161847e-003,
          5.53049482e-002, 4.46708500e-003, 4.03170893e-003,
          -1.32872894e-001, 0., 0., -5.70795266e-004, -1.23256678e-002,
          -1.63053740e-002, 2.59487471e-003, 2.26493534e-002,
          -1.45920292e-002, 3.66637530e-003, 9.77695733e-003, 0.,
          7.62101471e-001, 5.84795326e-003, 1.92877725e-001,
          -1.00236898e-002, 2.55794972e-002, 7.32913101e-003,
          -4.93810587e-002, 1.88679248e-002, 4.35811192e-001,
          1.57206208e-002, -3.40308584e-002, 0., -4.01606411e-003, 0.,
          -3.64308096e-002, 1.27833411e-001, 0., 0., -1.32450331e-002,
          0., -7.96951354e-003, 3.26375179e-002, 1.54121383e-003, 0.,
          -7.65508926e-003, 1.51435018e-001, 0., 0., 2.13510040e-002,
          4.29825770e-004, -1.99369453e-002, 1.82039067e-001,
          -8.02227631e-002, 0., 1.73971117e-001, -1.65522173e-002,
          5.75827342e-003, 0., -1.07296137e-003, 5.88668622e-002,
          -3.37923989e-002, 0., 0., 2.26280075e-002, -3.90955620e-002,
          0., 0., -6.62251655e-003, -6.80480618e-003, -1.80740503e-003,
          -2.43206881e-002, -5.88860549e-002, 4.16666679e-002, 0.,
          -2.02630162e-002, 0., 0., -3.88709828e-002, -8.93632248e-002,
          -5.31617028e-004, -1.09129108e-001, 0., -7.79393734e-003,
          -5.31617028e-004, 0., -2.11331323e-001, 3.75334434e-002,
          -2.20957696e-002, 1.85879529e-001, -8.29060096e-003, 0., 0.,
          8.44209492e-002, 0., 0., 2.57607130e-003, 0., 6.07312806e-002,
          0., -9.52351466e-002, 0., 0., -4.12416384e-002,
          3.47508192e-002, 0., 9.03108269e-002, -4.61987872e-003,
          -1.60025414e-002, -1.07296137e-003, 4.18081850e-001,
          -1.63883530e-002, 3.16925615e-001, -1.36649199e-002,
          4.13040780e-002, 6.84931502e-003, -3.15588228e-002,
          1.27006605e-001, 0., -2.43317871e-003, 1.31197691e-001,
          -7.68262222e-002, 0., 0., 0., -1.13636367e-002, 0.,
          1.19847907e-002, 4.51822998e-003, 0., -8.29610974e-003,
          2.57163644e-002, 0., 1.47688510e-002, -1.54009730e-001,
          9.23930854e-003, -4.01314050e-002, 3.58427688e-003,
          -8.81258957e-003, 2.75379382e-002, 0., -2.05399528e-001,
          2.33061522e-001, 2.49115154e-002, 1.67310789e-001, 0., 0.,
          -1.28738701e-001, -3.83243561e-002, -2.61597242e-002,
          1.02906749e-002, -5.24755605e-002, 0., 3.37889008e-002,
          -1.84718311e-001, 5.30424854e-003, 0., -4.98770736e-002,
          5.26315793e-002, -3.33942333e-003, -2.14592274e-003,
          2.73987576e-002, -1.08742729e-001, -1.64220437e-001,
          4.34767082e-003, 2.81228386e-002, 1.12268701e-001,
          -4.30943854e-002, 1.67602852e-001, -2.11535707e-001,
          -1.04093570e-002, 0., 5.15898038e-003, 7.86800459e-002, 0.,
          2.92397663e-003, 0., 0., 1.37707661e-003, -1.17115416e-002, 0.,
          -4.62616652e-001, -4.29106727e-002, 3.36100236e-002,
          -1.63934417e-002, -6.54813170e-001, -5.31617028e-004,
          -1.73728958e-001, 0., -7.05004390e-003, 0., 0.,
          2.10511568e-003, -2.13262495e-002, 0., 0., 2.31884085e-002, 0.,
          -1.71008874e-002, -1.20112728e-002, 7.73910508e-002,
          -4.08826210e-003, -1.28496187e-002, 0., -8.17652419e-003,
          2.71657072e-002, -5.29805105e-003, 0., -1.15377968e-003, 0.,
          -7.15413364e-003, 5.38677871e-002, -1.07296137e-003,
          -5.31617028e-004, -1.20481923e-002, -2.98652668e-002,
          -4.08826210e-003, 2.83075422e-002, -7.33642327e-003, 0.,
          3.75457527e-003, 2.27272734e-002, 5.12584783e-002,
          6.87063932e-002, 1.40254766e-001, 9.45252180e-002,
          -5.03515303e-002, -2.93901172e-002, 0., 1.37929190e-002,
          3.21605876e-002, -2.61780107e-003, -7.90499747e-002,
          -3.54300486e-003, -4.45392430e-002, -3.05810408e-003, 0.,
          5.51534705e-002, 4.77510458e-003, 3.50872353e-002,
          4.14862623e-003, 1.15564605e-002, 0., 0., 0., -6.29396662e-002,
          -2.56640855e-002, 1.31829809e-002, 1.01116265e-003,
          2.27717608e-002, -1.73478052e-002, 0., 0., 5.95145999e-003, 0.,
          -6.42009126e-003, 0., 4.63782670e-003, 7.99890514e-003,
          -1.80281827e-003, 1.54822413e-002, -1.45731166e-001,
          -2.53559258e-002, 1.15780765e-002, 1.33378789e-001,
          -1.69865802e-004, 2.66534014e-004, 0., 1.58730161e-003, 0., 0.,
          -1.03049946e-003, 0., -2.04236922e-003, -1.25628139e-003,
          2.31656898e-002, 1.67647668e-003, 3.19428649e-003,
          -6.79463206e-004, -1.08434651e-002, 1.51086496e-002,
          4.87841107e-002, -3.95825971e-003, 4.72640945e-003, 0.,
          4.58112732e-003, -3.05051357e-002, 0., 4.57439665e-003,
          -1.36318998e-002, -7.52997166e-003, 0., -5.10906382e-003,
          -5.63129177e-003, 1.68599095e-002, 6.41183695e-003,
          1.83896571e-002, 4.04808810e-003, -1.62571575e-002,
          1.65695585e-002, -3.35514210e-002, 1.03309681e-003,
          -1.04257971e-001, 3.38873565e-002, -7.91015409e-005,
          9.85882618e-003, -2.79193390e-002, 5.48816733e-002,
          4.29767594e-002, 4.53103818e-002, 4.48144414e-002, 0.,
          -5.00391191e-003, -1.31309917e-002, 1.19439187e-003,
          1.54461339e-002, -5.30977361e-003, 6.30419049e-003,
          -3.00408639e-002, -2.04560459e-002, 9.86625720e-003,
          2.86999717e-003, 0., 1.74179412e-002, -1.69865802e-004,
          -1.82059733e-003, -1.34607375e-001, 4.79780808e-002,
          2.55401339e-002, 0., 0., -1.63202900e-002, 0., 0.,
          -2.68770400e-002, 6.88557178e-002, -2.98519130e-003,
          4.77510458e-003, 3.18727523e-001, 0., -7.26710781e-002,
          -6.75201649e-003, -2.03850097e-003, -2.41101999e-002,
          -2.17599258e-001, 1.27762273e-001, 4.84810304e-003, 0.,
          -9.01702419e-002, 3.12186535e-002, 0., 7.35741854e-002, 0., 0.,
          3.23737375e-002, -2.05272995e-002, -5.03968783e-002,
          -1.91443916e-002, 1.68539546e-002, 3.29033099e-002,
          -3.43046486e-002, 4.72507887e-002, 0., -1.69075191e-001,
          -3.13335587e-003, -1.02911219e-002, -7.46545568e-003,
          7.65540525e-002, 0., -1.69267152e-002, 2.65369919e-004, 0.,
          4.22846735e-001, 0., 9.97097511e-003, 1.81604698e-002,
          1.91584542e-001, -2.92440448e-002, -1.69865802e-004,
          1.26081025e-002, 1.09745916e-002, -1.15578873e-002,
          1.59722045e-002, 4.56420220e-002, 2.90967897e-002,
          5.44221774e-002, 7.44014606e-002, -6.38495944e-003,
          -1.18270822e-001, 9.46043059e-002, -2.97127501e-003,
          1.58730161e-003, -6.25000009e-003, 6.05745353e-002,
          -4.22576219e-002, 3.96106113e-003, 1.80713646e-002, 0.,
          -1.55565307e-001, -4.77812998e-003, 0., 1.79368481e-002,
          1.41307130e-001, 1.55757308e-001, -2.89643630e-002,
          4.92316000e-002, -6.99317199e-004, 0., 2.12655198e-002,
          8.50403961e-003, -2.86375657e-002, -1.97031479e-002,
          5.33027994e-003, -1.83786936e-002, -2.61780107e-003, 0.,
          -1.44409478e-001, -1.35748582e-002, 9.85464940e-005, 0.,
          -1.85185187e-002, 2.59222597e-001, 0., 2.46485882e-002,
          -1.63934417e-002, 0., -6.70787785e-003, 9.18267667e-003,
          -2.08887234e-002, 7.61545403e-003, 1.92688045e-003,
          1.15325814e-002, -7.18671409e-003, 5.30888438e-002, 0.,
          4.51249741e-002, -2.55624931e-002, -5.49412929e-002,
          -1.86325889e-002, -4.78755031e-003, -6.87862262e-002,
          7.75420805e-003, -2.94272482e-001, -3.39011988e-003,
          7.96021521e-003, -1.42614718e-003, 0., -2.29233820e-002,
          2.65219845e-002, -3.40789882e-003, 1.14357681e-003, 0.,
          -1.26667053e-001, -1.11236773e-001, -9.02963355e-002,
          3.49348015e-003, 1.22045949e-002, 7.99161643e-002,
          2.11202912e-002, 7.40610585e-002, 1.65526450e-001,
          2.71812659e-002, 7.08208245e-004, 0., 1.08490251e-001,
          7.58090839e-002, -6.28607394e-003, 7.70071074e-002,
          -1.72263142e-002, 1.68346316e-002, 0., -3.43162827e-002,
          -6.07430877e-004, -1.53138652e-003, 0., 9.19286686e-004,
          -6.49422826e-003, 0., 4.62988131e-002, -1.41551029e-002, 0.,
          3.10270768e-002, -2.68764291e-002, -1.05985790e-001,
          2.39164326e-002, -6.49422826e-003, 0., 1.27870804e-002,
          1.52671756e-003, 0., 0., -2.99319774e-002, -4.42718714e-002,
          3.76412496e-002, 3.17460322e-003, 1.08899036e-002, 0., 0.,
          9.62611102e-003, -1.29884565e-002, 9.17033479e-003,
          1.52671756e-003, -1.66574325e-002, -6.95189163e-002,
          6.60519153e-002, 7.19898343e-002, -1.18597168e-002,
          1.58730161e-003, -3.80168296e-002, -1.27591351e-002,
          -8.20010602e-002, 5.04790945e-003, -5.50669208e-002, 0.,
          6.61964016e-003, 0., -1.47616928e-002, -1.42614718e-003,
          -3.85272726e-002, -8.56999457e-002, 1.22257415e-002,
          -1.21558579e-002, -2.61780107e-003, -4.16666688e-003,
          -1.00159198e-002, -5.81073202e-003, 1.71524435e-002,
          -2.05104705e-003, -6.05403744e-002, -1.14212986e-002,
          -6.17226632e-003, -6.98552728e-002, -2.61780107e-003,
          -2.10537881e-001, -2.10561045e-003, 1.42011464e-001,
          3.66262645e-002, 3.75396833e-002, 8.66836607e-002,
          -3.53099480e-002, -1.48504823e-002, -1.47105381e-001,
          7.35062035e-003, 5.31028509e-002, 3.68638965e-003,
          -7.02633942e-003, 0., -1.73903406e-002, -4.06930111e-002, 0.,
          -3.07687861e-003, -6.50121868e-002, -1.18894260e-002,
          7.39347786e-002, 5.32899890e-003, -4.90074651e-003, 0.,
          8.09053890e-003, 1.34615572e-002, 0., 3.37656937e-004,
          -7.23322034e-002, 3.00007854e-002, 3.17460322e-003,
          6.01789877e-002, 3.02492548e-002, 0., 5.46001457e-002,
          -9.64020491e-002, -1.54332202e-002, 1.15208337e-002,
          -9.39446676e-004, -6.51973858e-002, 4.67464551e-002,
          -8.34974833e-003, -2.61780107e-003, 1.18868455e-004,
          4.41093463e-003, 0., 0., -4.79594916e-002, -4.07554070e-003,
          3.80228134e-003, 6.13432471e-003, -9.19341948e-003,
          5.51492907e-002, 0., -1.47463012e-004, 1.58730161e-003,
          1.27870804e-002, -3.80038358e-002, 6.07598722e-002,
          -1.29569005e-002, -1.40415758e-001, -3.39731603e-004,
          -7.70489685e-003, 0., 0., 1.16713129e-001, -5.20831980e-002,
          2.67025735e-003, -1.24486819e-001, 4.83026542e-002,
          -3.05810408e-003, -7.50628160e-003, -3.14510949e-002,
          1.52671756e-003, 0., 8.08263272e-002, 0., 6.42871810e-003,
          -6.31387625e-003, -1.63717642e-002, -3.39011988e-003,
          -1.42614718e-003, 5.50668612e-002, 3.37841474e-002,
          -1.38341617e-002, -5.68842143e-003, -1.87986605e-002,
          -8.15401897e-002, 2.45067314e-003, 7.46556893e-002,
          -4.00842354e-002, -8.24220628e-002, 9.25925933e-003, 0.,
          -6.24545617e-003, 2.15628272e-004, 1.28191948e-001,
          -8.49288702e-003, -2.70439982e-002, 2.69547906e-002,
          1.69954911e-001, 0., -1.28205130e-002, 2.96103698e-003,
          -1.38888890e-002, -2.01794952e-002, 1.93944648e-002,
          5.78898238e-003, -3.17197442e-002, 2.45704409e-002,
          8.62376951e-003, 0., 1.10931760e-002, -1.14556618e-001,
          1.49909044e-002, 3.63754644e-003, -2.61780107e-003,
          1.40690198e-002, -5.30022988e-003, 0., -3.72127332e-002,
          -1.12248026e-001, -1.32882148e-002, 1.68576594e-002,
          -1.86861549e-002, 0., 2.55781524e-002, 4.77510458e-003, 0.,
          5.81859238e-003, -6.21986529e-003, 3.73140536e-003,
          2.02450063e-002, 1.47245482e-001, -7.52945198e-003,
          1.52671756e-003, 3.25621739e-002, 3.63241555e-003,
          -6.50703385e-002, 0., -3.24105769e-002, -1.03772834e-001,
          2.66066031e-003, -5.09597419e-004, 1.90048683e-002,
          -8.57213698e-003, 3.13786836e-003, 7.47702492e-004,
          -9.75926369e-002, 8.00328609e-003, 0., 8.53706896e-003,
          -1.77809745e-001, 0., 2.68671615e-003, -1.03092780e-002,
